{"learner":{"attributes":{"best_iteration":"349","best_score":"0.19436988308163525"},"feature_names":["cab_type","name","source","destination","time_of_day","demand_density","distance","rides_in_hour_at_source","bad_weather_score","is_raining","is_weekend","ride_hour","uber_lyft_price_ratio","is_pooled"],"feature_types":["c","c","c","c","c","c","float","int","float","i","i","int","float","i"],"gradient_booster":{"model":{"cats":{"enc":[{"offsets":[0,4,8],"values":[76,121,102,116,85,98,101,114]},{"offsets":[0,5,14,17,26,38,42,49,55,63,68,74,77],"values":[66,108,97,99,107,66,108,97,99,107,32,83,85,86,76,117,120,76,117,120,32,66,108,97,99,107,76,117,120,32,66,108,97,99,107,32,88,76,76,121,102,116,76,121,102,116,32,88,76,83,104,97,114,101,100,85,98,101,114,80,111,111,108,85,98,101,114,88,85,98,101,114,88,76,87,65,86]},{"offsets":[0,8,19,36,42,60,76,85,98,121,134,150,158],"values":[66,97,99,107,32,66,97,121,66,101,97,99,111,110,32,72,105,108,108,66,111,115,116,111,110,32,85,110,105,118,101,114,115,105,116,121,70,101,110,119,97,121,70,105,110,97,110,99,105,97,108,32,68,105,115,116,114,105,99,116,72,97,121,109,97,114,107,101,116,32,83,113,117,97,114,101,78,111,114,116,104,32,69,110,100,78,111,114,116,104,32,83,116,97,116,105,111,110,78,111,114,116,104,101,97,115,116,101,114,110,32,85,110,105,118,101,114,115,105,116,121,83,111,117,116,104,32,83,116,97,116,105,111,110,84,104,101,97,116,114,101,32,68,105,115,116,114,105,99,116,87,101,115,116,32,69,110,100]},{"offsets":[0,8,19,36,42,60,76,85,98,121,134,150,158],"values":[66,97,99,107,32,66,97,121,66,101,97,99,111,110,32,72,105,108,108,66,111,115,116,111,110,32,85,110,105,118,101,114,115,105,116,121,70,101,110,119,97,121,70,105,110,97,110,99,105,97,108,32,68,105,115,116,114,105,99,116,72,97,121,109,97,114,107,101,116,32,83,113,117,97,114,101,78,111,114,116,104,32,69,110,100,78,111,114,116,104,32,83,116,97,116,105,111,110,78,111,114,116,104,101,97,115,116,101,114,110,32,85,110,105,118,101,114,115,105,116,121,83,111,117,116,104,32,83,116,97,116,105,111,110,84,104,101,97,116,114,101,32,68,105,115,116,114,105,99,116,87,101,115,116,32,69,110,100]},{"offsets":[0,9,16,26,33,38],"values":[97,102,116,101,114,110,111,111,110,101,118,101,110,105,110,103,108,97,116,101,95,110,105,103,104,116,109,111,114,110,105,110,103,110,105,103,104,116]},{"offsets":[0,4,7,13,22],"values":[104,105,103,104,108,111,119,109,101,100,105,117,109,118,101,114,121,95,104,105,103,104]},{"offsets":[],"values":[]},{"offsets":[],"values":[]},{"offsets":[],"values":[]},{"offsets":[],"values":[]},{"offsets":[],"values":[]},{"offsets":[],"values":[]},{"offsets":[],"values":[]},{"offsets":[],"values":[]}],"feature_segments":[0,2,14,26,38,43,47,47,47,47,47,47,47,47,47],"sorted_idx":[0,1,0,1,2,3,4,5,6,7,8,9,10,11,0,1,2,3,4,5,6,7,8,9,10,11,0,1,2,3,4,5,6,7,8,9,10,11,0,1,2,3,4,0,1,2,3]},"gbtree_model_param":{"num_parallel_tree":"1","num_trees":"370"},"iteration_indptr":[0,1,2,3,4,5,6,7,8,9,10,11,12,13,14,15,16,17,18,19,20,21,22,23,24,25,26,27,28,29,30,31,32,33,34,35,36,37,38,39,40,41,42,43,44,45,46,47,48,49,50,51,52,53,54,55,56,57,58,59,60,61,62,63,64,65,66,67,68,69,70,71,72,73,74,75,76,77,78,79,80,81,82,83,84,85,86,87,88,89,90,91,92,93,94,95,96,97,98,99,100,101,102,103,104,105,106,107,108,109,110,111,112,113,114,115,116,117,118,119,120,121,122,123,124,125,126,127,128,129,130,131,132,133,134,135,136,137,138,139,140,141,142,143,144,145,146,147,148,149,150,151,152,153,154,155,156,157,158,159,160,161,162,163,164,165,166,167,168,169,170,171,172,173,174,175,176,177,178,179,180,181,182,183,184,185,186,187,188,189,190,191,192,193,194,195,196,197,198,199,200,201,202,203,204,205,206,207,208,209,210,211,212,213,214,215,216,217,218,219,220,221,222,223,224,225,226,227,228,229,230,231,232,233,234,235,236,237,238,239,240,241,242,243,244,245,246,247,248,249,250,251,252,253,254,255,256,257,258,259,260,261,262,263,264,265,266,267,268,269,270,271,272,273,274,275,276,277,278,279,280,281,282,283,284,285,286,287,288,289,290,291,292,293,294,295,296,297,298,299,300,301,302,303,304,305,306,307,308,309,310,311,312,313,314,315,316,317,318,319,320,321,322,323,324,325,326,327,328,329,330,331,332,333,334,335,336,337,338,339,340,341,342,343,344,345,346,347,348,349,350,351,352,353,354,355,356,357,358,359,360,361,362,363,364,365,366,367,368,369,370],"tree_info":[0,0,0,0,0,0,0,0,0,0,0,0,0,0,0,0,0,0,0,0,0,0,0,0,0,0,0,0,0,0,0,0,0,0,0,0,0,0,0,0,0,0,0,0,0,0,0,0,0,0,0,0,0,0,0,0,0,0,0,0,0,0,0,0,0,0,0,0,0,0,0,0,0,0,0,0,0,0,0,0,0,0,0,0,0,0,0,0,0,0,0,0,0,0,0,0,0,0,0,0,0,0,0,0,0,0,0,0,0,0,0,0,0,0,0,0,0,0,0,0,0,0,0,0,0,0,0,0,0,0,0,0,0,0,0,0,0,0,0,0,0,0,0,0,0,0,0,0,0,0,0,0,0,0,0,0,0,0,0,0,0,0,0,0,0,0,0,0,0,0,0,0,0,0,0,0,0,0,0,0,0,0,0,0,0,0,0,0,0,0,0,0,0,0,0,0,0,0,0,0,0,0,0,0,0,0,0,0,0,0,0,0,0,0,0,0,0,0,0,0,0,0,0,0,0,0,0,0,0,0,0,0,0,0,0,0,0,0,0,0,0,0,0,0,0,0,0,0,0,0,0,0,0,0,0,0,0,0,0,0,0,0,0,0,0,0,0,0,0,0,0,0,0,0,0,0,0,0,0,0,0,0,0,0,0,0,0,0,0,0,0,0,0,0,0,0,0,0,0,0,0,0,0,0,0,0,0,0,0,0,0,0,0,0,0,0,0,0,0,0,0,0,0,0,0,0,0,0,0,0,0,0,0,0,0,0,0,0,0,0,0,0,0,0,0,0,0,0,0,0,0,0,0,0,0,0,0,0,0,0,0,0,0,0,0,0,0,0,0,0],"trees":[{"base_weights":[-2.6834105E-8,4.1432813E-1,-3.6107033E-2,2.7633065E-1,4.8036864E-1,3.2646174E0,-3.9969552E-2,1.9520737E-1,3.113094E-1,5.8664215E-1,4.1150627E-1,3.778036E-1,2.0549626E0,-1.3510591E-2,-6.6815935E-2,2.5654468E-1,1.4698063E-1,5.4635507E-1,2.990051E-1,6.126744E-1,1.4535126E-1,5.356706E-1,2.6816767E-1,3.1839538E0,1.0542349E0,1.0713514E-1,-2.4665073E-2,-5.82976E-2,-1.03744775E-1,5.973342E-1,2.4326728E-1,9.667203E-2,1.4414445E-1,6.574491E-1,4.8115563E-1,6.000624E-1,2.917779E-1,6.462189E-1,4.572668E-1,1.630889E-1,-4.2248338E-1,6.384519E-1,4.5933762E-1,4.0842754E-1,2.31303E-1,3.6755225E-1,2.5370967E0,2.2548E-1,4.069772E-1,4.0884492E-1,-3.5300188E-2,1.8401057E-2,-5.051297E-2,-4.4992164E-2,-8.495328E-2,-7.30552E-2,-1.2520972E-1,-2.853763E-3,6.101658E-2,3.9650865E-2,2.2003554E-2,1.6722E-2,1.2229039E-2,3.733905E-2,7.073762E-2,6.042803E-2,4.086606E-2,6.491897E-2,-2.0508405E-3,3.3598807E-2,2.5510732E-2,1.105624E-1,6.2447287E-2,4.8828397E-2,3.3651136E-2,1.6555255E-2,-2.7724508E-2,-4.4382766E-2,-6.1831893E-3,3.9015602E-2,6.598853E-2,4.913309E-2,1.9501088E-2,5.327284E-2,3.0394346E-2,1.972921E-2,2.8948573E-2,2.683484E-1,1.5043007E-1,5.7022583E-2,1.4991782E-2,6.760718E-2,8.966657E-3,5.1811934E-3,-1.1291405E-2,5.6867315E-3,-2.8368759E-3,-2.05945E-3,-6.190725E-3,-3.2325133E-3,-5.9967316E-3,-3.741279E-3,-1.1277331E-2,5.51117E-3,-9.70242E-3,-1.6419193E-2,-1.1653054E-2],"categories":[0,1,2,3,4,5,6,8,9,10,11,0,2,6,7,8,9,11,1,3,4,5,6,7,8,2,3,5,7,10,11,0,1,2,3,4,5,6,7,8,10,11,5,7,2,3,7,8,11,0,1,2,3,4,5,7,8,9,10,0,1,2,3,4,5,6,7,8,10,11,0,1,0,1,2,3,4,5,6,7,8,9,10,0,2,3,4,5,6,8,9,10,11,1,5,0,1,3,4,5,6,7,9,10,11,0,1,2,3,4,6,7,8,9,10,11,0,1,2,3,4,5,7,8,9,10,11,1,2,3,4,5,6,7,8,9,10,11,0,1,2,3,4,5,6,7,11,0,2,3,5,7,10,11,0,1,2,3,4,6,8,9,10,11,11,5,6,7,8,10,11,0,1,2,3,5,6,7,8,9,10,11,0,1,5,6,7,8,9,10,11,0,1,2,3,4,5,6,7,8,10,11,2,3,4,5,6,7,10,0,1,2,3,4,5,6,8,9,10,11,4,2,3,4,5,7,1,2,3,4,5,7,10,11,0,3,7,9,11],"categories_nodes":[0,4,5,6,8,9,10,12,13,14,15,16,20,21,23,24,25,26,27,28,32,35,36,37,38,43,46,48,50,51,52,53],"categories_segments":[0,11,18,25,31,42,44,49,59,70,72,83,93,95,105,116,127,138,145,147,154,164,165,171,182,191,202,209,220,221,226,234],"categories_sizes":[11,7,7,6,11,2,5,10,11,2,11,10,2,10,11,11,11,7,2,7,10,1,6,11,9,11,7,11,1,5,8,5],"default_left":[1,0,0,0,1,1,1,0,1,1,1,0,1,1,1,1,1,0,0,0,1,1,0,1,1,1,1,1,1,0,0,0,1,0,0,1,1,1,1,0,0,0,0,1,0,0,1,0,1,0,1,1,1,1,0,0,0,0,0,0,0,0,0,0,0,0,0,0,0,0,0,0,0,0,0,0,0,0,0,0,0,0,0,0,0,0,0,0,0,0,0,0,0,0,0,0,0,0,0,0,0,0,0,0,0,0,0],"id":0,"left_children":[1,3,5,7,9,11,13,15,17,19,21,-1,23,25,27,29,31,33,35,37,39,41,43,45,47,49,51,53,55,57,59,-1,61,63,65,67,69,71,73,75,77,79,81,83,85,-1,87,-1,89,91,93,95,97,99,101,103,105,-1,-1,-1,-1,-1,-1,-1,-1,-1,-1,-1,-1,-1,-1,-1,-1,-1,-1,-1,-1,-1,-1,-1,-1,-1,-1,-1,-1,-1,-1,-1,-1,-1,-1,-1,-1,-1,-1,-1,-1,-1,-1,-1,-1,-1,-1,-1,-1,-1,-1],"loss_changes":[6.1083335E3,2.981499E2,4.788405E3,3.0006287E1,1.6174805E2,2.6488135E2,2.6647052E2,9.413422E0,2.1243774E1,9.9866455E1,2.3896606E2,0E0,1.4690851E2,2.5425876E2,5.8569214E1,6.2120285E0,4.024601E0,2.3419418E0,1.5133789E1,4.2534668E1,4.9639187E0,5.6179443E1,3.2159912E1,1.0389221E1,5.503174E1,6.8717084E2,1.925179E2,5.3659485E1,2.2981262E1,4.3502045E-1,4.733078E0,0E0,8.802223E-1,1.6221046E0,1.850647E0,5.013191E0,1.1056885E1,6.67937E1,5.311615E0,5.5793667E-1,8.8024855E-2,1.6053955E1,3.4864075E1,1.6682816E1,9.722351E0,0E0,4.9887085E-1,0E0,1.9288135E0,4.3732202E2,7.345177E1,1.1670302E2,3.684247E1,1.9143555E1,6.66246E1,4.413816E1,6.9285583E0,0E0,0E0,0E0,0E0,0E0,0E0,0E0,0E0,0E0,0E0,0E0,0E0,0E0,0E0,0E0,0E0,0E0,0E0,0E0,0E0,0E0,0E0,0E0,0E0,0E0,0E0,0E0,0E0,0E0,0E0,0E0,0E0,0E0,0E0,0E0,0E0,0E0,0E0,0E0,0E0,0E0,0E0,0E0,0E0,0E0,0E0,0E0,0E0,0E0,0E0],"parents":[2147483647,0,0,1,1,2,2,3,3,4,4,5,5,6,6,7,7,8,8,9,9,10,10,12,12,13,13,14,14,15,15,16,16,17,17,18,18,19,19,20,20,21,21,22,22,23,23,24,24,25,25,26,26,27,27,28,28,29,29,30,30,32,32,33,33,34,34,35,35,36,36,37,37,38,38,39,39,40,40,41,41,42,42,43,43,44,44,46,46,48,48,49,49,50,50,51,51,52,52,53,53,54,54,55,55,56,56],"right_children":[2,4,6,8,10,12,14,16,18,20,22,-1,24,26,28,30,32,34,36,38,40,42,44,46,48,50,52,54,56,58,60,-1,62,64,66,68,70,72,74,76,78,80,82,84,86,-1,88,-1,90,92,94,96,98,100,102,104,106,-1,-1,-1,-1,-1,-1,-1,-1,-1,-1,-1,-1,-1,-1,-1,-1,-1,-1,-1,-1,-1,-1,-1,-1,-1,-1,-1,-1,-1,-1,-1,-1,-1,-1,-1,-1,-1,-1,-1,-1,-1,-1,-1,-1,-1,-1,-1,-1,-1,-1],"split_conditions":[1E-45,1.47E0,3.9E-1,9.1E-1,1E-45,1E-45,1E-45,6.1E-1,1E-45,1E-45,1E-45,3.778036E-1,1E-45,1E-45,1E-45,1E-45,1E-45,1.35E0,9.7E-1,4.02E0,1E-45,1E-45,2.09E0,1E-45,1E-45,1E-45,1E-45,1E-45,1E-45,4.4E1,4.4E-1,9.667203E-2,1E-45,1.26E2,3.256399E-1,1E-45,1E-45,1E-45,1E-45,6.846736E-1,3.12E2,1.56E0,3E0,1E-45,3.19E0,3.6755225E-1,1E-45,2.2548E-1,1E-45,2.45E0,1E-45,1E-45,1E-45,1E-45,1.77E0,9.9E-1,1.03E0,-2.853763E-3,6.101658E-2,3.9650865E-2,2.2003554E-2,1.6722E-2,1.2229039E-2,3.733905E-2,7.073762E-2,6.042803E-2,4.086606E-2,6.491897E-2,-2.0508405E-3,3.3598807E-2,2.5510732E-2,1.105624E-1,6.2447287E-2,4.8828397E-2,3.3651136E-2,1.6555255E-2,-2.7724508E-2,-4.4382766E-2,-6.1831893E-3,3.9015602E-2,6.598853E-2,4.913309E-2,1.9501088E-2,5.327284E-2,3.0394346E-2,1.972921E-2,2.8948573E-2,2.683484E-1,1.5043007E-1,5.7022583E-2,1.4991782E-2,6.760718E-2,8.966657E-3,5.1811934E-3,-1.1291405E-2,5.6867315E-3,-2.8368759E-3,-2.05945E-3,-6.190725E-3,-3.2325133E-3,-5.9967316E-3,-3.741279E-3,-1.1277331E-2,5.51117E-3,-9.70242E-3,-1.6419193E-2,-1.1653054E-2],"split_indices":[1,6,6,6,3,2,2,6,3,2,2,0,3,3,1,3,3,6,6,6,3,3,6,2,2,2,1,2,3,7,6,0,2,7,8,2,2,3,2,8,7,6,6,3,6,0,1,0,2,6,2,3,3,3,6,6,6,0,0,0,0,0,0,0,0,0,0,0,0,0,0,0,0,0,0,0,0,0,0,0,0,0,0,0,0,0,0,0,0,0,0,0,0,0,0,0,0,0,0,0,0,0,0,0,0,0,0],"split_type":[1,0,0,0,1,1,1,0,1,1,1,0,1,1,1,1,1,0,0,0,1,1,0,1,1,1,1,1,1,0,0,0,1,0,0,1,1,1,1,0,0,0,0,1,0,0,1,0,1,0,1,1,1,1,0,0,0,0,0,0,0,0,0,0,0,0,0,0,0,0,0,0,0,0,0,0,0,0,0,0,0,0,0,0,0,0,0,0,0,0,0,0,0,0,0,0,0,0,0,0,0,0,0,0,0,0,0],"sum_hessian":[4.08305E5,3.2729E4,3.75576E5,1.0595E4,2.2134E4,4.38E2,3.75138E5,3.194E3,7.401E3,8.7E3,1.3434E4,3.06E2,1.32E2,1.88933E5,1.86205E5,1.404E3,1.79E3,3.66E2,7.035E3,8.215E3,4.85E2,7.197E3,6.237E3,6.1E1,7.1E1,1.5989E4,1.72944E5,1.51306E5,3.4899E4,5.1E1,1.353E3,5E0,1.785E3,1.32E2,2.34E2,1.63E2,6.872E3,6.754E3,1.461E3,4.71E2,1.4E1,3.064E3,4.133E3,1.296E3,4.941E3,3.2E1,2.9E1,2.4E1,4.7E1,5.127E3,1.0862E4,6.4867E4,1.08077E5,1.00929E5,5.0377E4,1.4365E4,2.0534E4,1E0,5E1,1.76E2,1.177E3,8.65E2,9.2E2,2.1E1,1.11E2,8.4E1,1.5E2,1.51E2,1.2E1,3.112E3,3.76E3,3.03E2,6.451E3,1.16E3,3.01E2,4.69E2,2E0,1.3E1,1E0,2.45E2,2.819E3,3.686E3,4.47E2,5.9E2,7.06E2,3.121E3,1.82E3,2.4E1,5E0,2.8E1,1.9E1,2.79E3,2.337E3,5.118E3,5.744E3,3.5593E4,2.9274E4,2.9809E4,7.8268E4,5.468E4,4.6249E4,1.8598E4,3.1779E4,2.263E3,1.2102E4,3.736E3,1.6798E4],"tree_param":{"num_deleted":"0","num_feature":"14","num_nodes":"107","size_leaf_vector":"1"}},{"base_weights":[6.208181E-6,3.729282E-1,-3.2492418E-2,2.4875201E-1,4.3235436E-1,2.9414852E0,-3.597258E-2,1.7576346E-1,2.802232E-1,4.8210353E-1,3.129786E-1,3.401463E-1,1.8576155E0,1.781987E-2,-4.672263E-2,2.3097551E-1,1.323527E-1,4.9229005E-1,2.691219E-1,5.315289E-1,2.5046134E-1,4.634128E-1,2.3886132E-1,2.878241E0,9.529432E-1,3.6797535E-1,-1.3486622E-2,-2.8747668E-2,-7.1877666E-2,3.5278448E-1,1.9993742E-1,8.861603E-2,1.297462E-1,2.6461336E-1,5.170156E-1,5.404394E-1,2.626087E-1,3.7954208E-1,5.640637E-1,3.8875234E-1,1.7803767E-1,6.7175E-1,4.4414166E-1,3.0723652E-1,1.7616926E-1,3.3191082E-1,2.297346E0,2.0383394E0,3.6777982E-1,6.0848886E-1,8.070372E-2,5.0333887E-2,-4.9310587E-2,3.7652825E-3,-4.8255417E-2,-4.989076E-2,-9.274719E-2,6.3706964E-2,3.2166634E-2,3.5708174E-2,1.7032381E-2,1.5051735E-2,1.1007459E-2,3.3809256E-2,-1.0909337E-2,6.267389E-2,4.5380265E-2,5.846978E-2,-1.8615287E-3,3.0240009E-2,2.2960333E-2,4.9093377E-2,3.548371E-2,5.980906E-2,4.8103496E-2,6.1556876E-2,1.4774685E-2,1.8219767E-2,-3.6745798E-2,5.3461533E-2,7.8882195E-2,4.7995415E-2,3.5512026E-2,4.2319044E-2,2.6136203E-2,3.243169E-2,1.5718842E-2,2.4258693E-1,1.3789423E-1,2.1329854E-1,1.00820065E-1,5.1516958E-2,1.3567564E-2,1.356097E-1,2.962338E-2,1.9648282E-2,-2.036472E-2,2.1504052E-2,-2.028098E-3,-2.5587918E-3,-7.83839E-3,6.5572383E-3,-2.1696263E-3,2.0893966E-4,-5.3036083E-3,3.2432708E-1,-5.1603457E-3,-1.8284576E-3,-1.004905E-2],"categories":[0,1,2,3,4,5,6,8,9,10,11,6,7,9,11,1,3,4,5,6,7,8,1,2,3,4,5,6,7,8,10,11,0,1,2,3,4,5,6,7,8,10,11,7,11,0,1,2,3,4,5,7,8,9,10,0,1,2,3,4,5,6,7,8,10,11,2,3,5,7,11,0,1,2,3,5,6,7,8,9,10,0,2,3,4,5,6,8,9,10,11,0,1,2,4,5,6,7,8,9,10,11,0,1,2,3,4,5,8,9,10,11,0,1,2,3,4,6,7,8,9,10,11,0,1,2,3,4,5,7,8,9,10,11,1,2,3,4,5,8,10,0,1,2,3,4,5,6,1,5,6,7,11,0,1,2,3,4,6,8,9,10,11,11,5,6,7,8,10,11,0,2,3,4,5,6,7,8,9,10,11,0,1,2,3,4,5,6,7,8,9,10,5,1,2,3,4,5,6,8,11,1,2,3,4,5,6,7,8,10,11,2,3,4,5,6,7,10,2,3,4,5,6,7,10,0,1,2,3,4,5,6,8,9,10,11,0,0,1,3,4,5,0,2,3,5,7,8,9,10,11,2,3,4,5,6,7,8,10,11,0,1,2,3,4,5,6,9,10,11],"categories_nodes":[0,4,5,6,8,9,12,13,14,15,16,20,22,23,24,26,27,28,32,35,36,37,39,40,42,43,46,47,48,49,52,53,54,56],"categories_segments":[0,11,15,22,32,43,45,55,66,71,81,91,102,112,123,134,141,148,153,163,164,170,181,192,193,201,211,218,225,236,237,242,251,260],"categories_sizes":[11,4,7,10,11,2,10,11,5,10,10,11,10,11,11,7,7,5,10,1,6,11,11,1,8,10,7,7,11,1,5,9,9,10],"default_left":[1,0,0,0,1,1,1,0,1,1,0,0,1,1,1,1,1,0,0,0,1,0,1,1,1,0,1,1,1,0,0,0,1,0,0,1,1,1,0,1,1,0,1,1,0,0,1,1,1,1,0,0,1,1,1,0,1,0,0,0,0,0,0,0,0,0,0,0,0,0,0,0,0,0,0,0,0,0,0,0,0,0,0,0,0,0,0,0,0,0,0,0,0,0,0,0,0,0,0,0,0,0,0,0,0,0,0,0,0],"id":1,"left_children":[1,3,5,7,9,11,13,15,17,19,21,-1,23,25,27,29,31,33,35,37,39,41,43,45,47,49,51,53,55,57,59,-1,61,63,65,67,69,71,73,75,77,79,81,83,85,-1,87,89,91,93,95,97,99,101,103,105,107,-1,-1,-1,-1,-1,-1,-1,-1,-1,-1,-1,-1,-1,-1,-1,-1,-1,-1,-1,-1,-1,-1,-1,-1,-1,-1,-1,-1,-1,-1,-1,-1,-1,-1,-1,-1,-1,-1,-1,-1,-1,-1,-1,-1,-1,-1,-1,-1,-1,-1,-1,-1],"loss_changes":[4.9484575E3,2.4141748E2,3.8872969E3,2.4290161E1,1.3130518E2,2.125476E2,2.1693295E2,7.6271973E0,1.7293396E1,1.7872314E2,7.251898E1,0E0,1.2006024E2,6.8495245E2,1.4136914E2,5.241371E0,3.4039707E0,1.929184E0,1.2291687E1,6.344629E1,2.7463516E1,8.329651E0,1.8661072E1,8.25293E0,4.497999E1,3.542583E2,1.3113573E2,1.1565964E2,5.9785706E1,2.3074646E0,5.16053E0,0E0,7.131939E-1,1.0803509E0,2.004448E0,4.0687103E0,8.957062E0,6.0809326E0,2.966504E1,5.151187E1,4.165245E0,2.4681168E0,6.110077E0,1.0990845E1,6.360306E0,0E0,1.9595337E-1,2.869873E-1,1.5721736E0,6.511416E2,7.70114E1,2.3984177E2,2.5334686E1,1.07617615E2,2.7431122E1,3.5806567E2,3.854242E1,0E0,0E0,0E0,0E0,0E0,0E0,0E0,0E0,0E0,0E0,0E0,0E0,0E0,0E0,0E0,0E0,0E0,0E0,0E0,0E0,0E0,0E0,0E0,0E0,0E0,0E0,0E0,0E0,0E0,0E0,0E0,0E0,0E0,0E0,0E0,0E0,0E0,0E0,0E0,0E0,0E0,0E0,0E0,0E0,0E0,0E0,0E0,0E0,0E0,0E0,0E0,0E0],"parents":[2147483647,0,0,1,1,2,2,3,3,4,4,5,5,6,6,7,7,8,8,9,9,10,10,12,12,13,13,14,14,15,15,16,16,17,17,18,18,19,19,20,20,21,21,22,22,23,23,24,24,25,25,26,26,27,27,28,28,29,29,30,30,32,32,33,33,34,34,35,35,36,36,37,37,38,38,39,39,40,40,41,41,42,42,43,43,44,44,46,46,47,47,48,48,49,49,50,50,51,51,52,52,53,53,54,54,55,55,56,56],"right_children":[2,4,6,8,10,12,14,16,18,20,22,-1,24,26,28,30,32,34,36,38,40,42,44,46,48,50,52,54,56,58,60,-1,62,64,66,68,70,72,74,76,78,80,82,84,86,-1,88,90,92,94,96,98,100,102,104,106,108,-1,-1,-1,-1,-1,-1,-1,-1,-1,-1,-1,-1,-1,-1,-1,-1,-1,-1,-1,-1,-1,-1,-1,-1,-1,-1,-1,-1,-1,-1,-1,-1,-1,-1,-1,-1,-1,-1,-1,-1,-1,-1,-1,-1,-1,-1,-1,-1,-1,-1,-1,-1],"split_conditions":[1E-45,1.47E0,3.9E-1,9.1E-1,1E-45,1E-45,1E-45,6.1E-1,1E-45,1E-45,2.07E0,3.401463E-1,1E-45,1E-45,1E-45,1E-45,1E-45,1.17E2,9.7E-1,1.95E0,1E-45,1.53E0,1E-45,1E-45,1E-45,2.45E0,1E-45,1E-45,1E-45,5.4E-1,4.4E-1,8.861603E-2,1E-45,3.7877887E-1,1.35E0,1E-45,1E-45,1E-45,3.22E0,1E-45,1E-45,3.5650164E-1,1E-45,1E-45,2.12E0,3.3191082E-1,1E-45,1E-45,1E-45,1E-45,3.47E0,1.91E0,1E-45,1E-45,1E-45,5.7E-1,1E-45,6.3706964E-2,3.2166634E-2,3.5708174E-2,1.7032381E-2,1.5051735E-2,1.1007459E-2,3.3809256E-2,-1.0909337E-2,6.267389E-2,4.5380265E-2,5.846978E-2,-1.8615287E-3,3.0240009E-2,2.2960333E-2,4.9093377E-2,3.548371E-2,5.980906E-2,4.8103496E-2,6.1556876E-2,1.4774685E-2,1.8219767E-2,-3.6745798E-2,5.3461533E-2,7.8882195E-2,4.7995415E-2,3.5512026E-2,4.2319044E-2,2.6136203E-2,3.243169E-2,1.5718842E-2,2.4258693E-1,1.3789423E-1,2.1329854E-1,1.00820065E-1,5.1516958E-2,1.3567564E-2,1.356097E-1,2.962338E-2,1.9648282E-2,-2.036472E-2,2.1504052E-2,-2.028098E-3,-2.5587918E-3,-7.83839E-3,6.5572383E-3,-2.1696263E-3,2.0893966E-4,-5.3036083E-3,3.2432708E-1,-5.1603457E-3,-1.8284576E-3,-1.004905E-2],"split_indices":[1,6,6,6,3,2,2,6,3,2,6,0,3,3,3,3,3,7,6,6,3,6,3,2,2,6,3,1,2,6,6,0,2,8,6,2,2,3,6,2,3,8,2,2,6,0,1,1,2,0,6,6,1,2,2,6,1,0,0,0,0,0,0,0,0,0,0,0,0,0,0,0,0,0,0,0,0,0,0,0,0,0,0,0,0,0,0,0,0,0,0,0,0,0,0,0,0,0,0,0,0,0,0,0,0,0,0,0,0],"split_type":[1,0,0,0,1,1,1,0,1,1,0,0,1,1,1,1,1,0,0,0,1,0,1,1,1,0,1,1,1,0,0,0,1,0,0,1,1,1,0,1,1,0,1,1,0,0,1,1,1,1,0,0,1,1,1,0,1,0,0,0,0,0,0,0,0,0,0,0,0,0,0,0,0,0,0,0,0,0,0,0,0,0,0,0,0,0,0,0,0,0,0,0,0,0,0,0,0,0,0,0,0,0,0,0,0,0,0,0,0],"sum_hessian":[4.08305E5,3.2729E4,3.75576E5,1.0595E4,2.2134E4,4.38E2,3.75138E5,3.194E3,7.401E3,1.5621E4,6.513E3,3.06E2,1.32E2,6.2482E4,3.12656E5,1.404E3,1.79E3,3.66E2,7.035E3,1.2873E4,2.748E3,2.148E3,4.365E3,6.1E1,7.1E1,5.127E3,5.7355E4,1.82354E5,1.30302E5,2.83E2,1.121E3,5E0,1.785E3,3.7E1,3.29E2,1.63E2,6.872E3,2.272E3,1.0601E4,9.43E2,1.805E3,1.79E2,1.969E3,2.086E3,2.279E3,3.2E1,2.9E1,2.4E1,4.7E1,2.79E3,2.337E3,2.062E4,3.6735E4,6.8383E4,1.13971E5,6.3454E4,6.6848E4,2.6E1,2.57E2,1.76E2,9.45E2,8.65E2,9.2E2,3.1E1,6E0,1.17E2,2.12E2,1.51E2,1.2E1,3.112E3,3.76E3,4.09E2,1.863E3,7.515E3,3.086E3,4.85E2,4.58E2,1.792E3,1.3E1,8.5E1,9.4E1,1.401E3,5.68E2,5.89E2,1.497E3,2.57E2,2.022E3,2.4E1,5E0,2.1E1,3E0,2.8E1,1.9E1,8.21E2,1.969E3,1.661E3,6.76E2,6.187E3,1.4433E4,2.023E4,1.6505E4,1.9951E4,4.8432E4,9.884E3,1.04087E5,3.2E1,6.3422E4,6.297E3,6.0551E4],"tree_param":{"num_deleted":"0","num_feature":"14","num_nodes":"109","size_leaf_vector":"1"}},{"base_weights":[1.29395885E-5,3.356686E-1,-2.9238079E-2,2.2611243E-1,3.9029336E-1,2.650598E0,-3.237403E-2,1.5826954E-1,2.5424078E-1,4.3668607E-1,2.800718E-1,3.0624247E-1,1.6800613E0,-1.0410102E-2,-5.465957E-2,2.0351747E-1,1.14864275E-1,4.6466556E-1,2.4297796E-1,4.8266777E-1,2.2543629E-1,4.0756503E-1,2.1091333E-1,2.6019073E0,8.629156E-1,2.4849392E-2,-3.6159486E-2,-4.719033E-2,-8.704048E-2,5.3972304E-1,1.8927065E-1,8.1231356E-2,1.1222327E-1,4.4341788E-1,7.702172E-1,4.8674068E-1,2.3734963E-1,3.5115218E-1,5.0766754E-1,3.49958E-1,1.6022371E-1,6.25939E-1,3.932792E-1,2.7759254E-1,1.4841002E-1,2.997255E-1,2.0802942E-1,1.8470701E0,3.3235773E-1,-6.6196606E-2,4.9870927E-2,-3.023957E-3,-5.7001438E-2,-3.5824593E-2,-6.9960125E-2,-5.510572E-2,-1.0252988E-1,5.6932927E-3,5.465917E-2,3.215753E-2,1.7145392E-2,8.104908E-3,1.2723917E-2,5.3592145E-2,3.897997E-2,8.576995E-2,-1.2805919E-2,6.5428145E-2,3.5501584E-2,2.5264276E-2,1.6394857E-2,4.4196013E-2,3.2780908E-2,5.3828944E-2,4.329471E-2,5.541386E-2,1.3300436E-2,1.6398814E-2,-3.3333693E-2,5.3646613E-2,8.245342E-2,4.286732E-2,3.1213244E-2,3.9999705E-2,2.4177635E-2,1.7386718E-2,5.725576E-3,1.9293824E-1,9.325856E-2,4.6542905E-2,1.2278645E-2,1.127088E-1,-7.219195E-3,2.2861706E-2,-1.2283461E-3,3.8659186E-3,-4.0551424E-3,2.9287717E-1,-5.8471216E-3,-3.302854E-3,-1.0141741E-2,-2.7399943E-3,-9.486594E-3,7.7015194E-3,-8.846735E-3,-9.649907E-3,-1.4591557E-2],"categories":[0,1,2,3,4,5,6,8,9,10,11,6,7,9,11,1,3,4,5,6,7,8,2,3,5,7,10,11,0,1,2,3,4,5,6,7,8,10,11,7,11,0,1,2,3,4,5,7,8,9,10,2,3,4,5,7,10,11,0,1,0,1,2,3,4,6,7,8,9,10,0,2,3,4,5,6,8,9,10,11,0,1,2,4,5,6,7,8,9,10,11,0,1,2,3,4,5,8,9,10,11,0,1,2,3,4,6,7,8,9,10,11,0,1,2,3,4,5,7,8,9,10,11,0,1,4,6,7,11,0,2,3,4,5,7,10,11,0,1,2,3,5,7,8,9,10,11,4,7,9,0,2,3,4,5,6,7,8,9,10,11,0,1,2,3,4,5,6,7,8,9,10,5,1,2,3,4,5,6,8,11,1,2,3,4,5,6,7,8,9,10,11,0,1,4,5,6,10,11,2,3,4,5,6,7,10,0,1,2,3,4,5,6,8,9,10,11,0,2,3,4,5,7,8,10,11,5],"categories_nodes":[0,4,5,6,8,9,12,13,14,15,16,20,22,23,24,26,27,28,35,36,37,39,40,42,43,44,47,48,49,56],"categories_segments":[0,11,15,22,28,39,41,51,58,60,70,80,91,101,112,123,127,129,137,147,150,161,172,173,181,192,199,206,217,226],"categories_sizes":[11,4,7,6,11,2,10,7,2,10,10,11,10,11,11,4,2,8,10,3,11,11,1,8,11,7,7,11,9,1],"default_left":[1,0,0,0,1,1,1,0,1,1,0,0,1,1,1,1,1,0,0,0,1,0,1,1,1,0,1,1,1,0,0,0,0,0,0,1,1,1,0,1,1,0,1,1,1,0,0,1,1,1,0,0,0,0,0,0,1,0,0,0,0,0,0,0,0,0,0,0,0,0,0,0,0,0,0,0,0,0,0,0,0,0,0,0,0,0,0,0,0,0,0,0,0,0,0,0,0,0,0,0,0,0,0,0,0,0,0],"id":2,"left_children":[1,3,5,7,9,11,13,15,17,19,21,-1,23,25,27,29,31,33,35,37,39,41,43,45,47,49,51,53,55,57,59,-1,61,63,65,67,69,71,73,75,77,79,81,83,85,-1,-1,87,89,91,93,95,97,99,101,103,105,-1,-1,-1,-1,-1,-1,-1,-1,-1,-1,-1,-1,-1,-1,-1,-1,-1,-1,-1,-1,-1,-1,-1,-1,-1,-1,-1,-1,-1,-1,-1,-1,-1,-1,-1,-1,-1,-1,-1,-1,-1,-1,-1,-1,-1,-1,-1,-1,-1,-1],"loss_changes":[4.0088682E3,1.9578394E2,3.1563762E3,2.0745056E1,1.1155078E2,1.7032007E2,1.836217E2,6.2515945E0,1.8131195E1,1.4917017E2,5.6979218E1,0E0,9.7941345E1,1.71536E2,4.50318E1,7.384392E0,2.9167728E0,2.1904526E0,9.912262E0,4.1314453E1,2.2266861E1,6.851074E0,1.7454681E1,6.550354E0,3.6980984E1,1.8166438E2,7.5409515E1,3.915506E1,1.725766E1,1.7779732E-1,3.4830818E0,0E0,7.517681E-1,1.6113663E0,1.9958372E0,3.3870811E0,7.9802246E0,4.1348724E0,2.4025146E1,4.1743347E1,3.4101677E0,2.0097694E0,6.006775E0,8.802948E0,5.0232697E0,0E0,0E0,8.251953E-2,1.2814717E0,1.23068275E2,6.9494653E2,6.595558E1,2.9433127E2,1.8507309E1,5.339789E1,5.0259777E1,6.13472E0,0E0,0E0,0E0,0E0,0E0,0E0,0E0,0E0,0E0,0E0,0E0,0E0,0E0,0E0,0E0,0E0,0E0,0E0,0E0,0E0,0E0,0E0,0E0,0E0,0E0,0E0,0E0,0E0,0E0,0E0,0E0,0E0,0E0,0E0,0E0,0E0,0E0,0E0,0E0,0E0,0E0,0E0,0E0,0E0,0E0,0E0,0E0,0E0,0E0,0E0],"parents":[2147483647,0,0,1,1,2,2,3,3,4,4,5,5,6,6,7,7,8,8,9,9,10,10,12,12,13,13,14,14,15,15,16,16,17,17,18,18,19,19,20,20,21,21,22,22,23,23,24,24,25,25,26,26,27,27,28,28,29,29,30,30,32,32,33,33,34,34,35,35,36,36,37,37,38,38,39,39,40,40,41,41,42,42,43,43,44,44,47,47,48,48,49,49,50,50,51,51,52,52,53,53,54,54,55,55,56,56],"right_children":[2,4,6,8,10,12,14,16,18,20,22,-1,24,26,28,30,32,34,36,38,40,42,44,46,48,50,52,54,56,58,60,-1,62,64,66,68,70,72,74,76,78,80,82,84,86,-1,-1,88,90,92,94,96,98,100,102,104,106,-1,-1,-1,-1,-1,-1,-1,-1,-1,-1,-1,-1,-1,-1,-1,-1,-1,-1,-1,-1,-1,-1,-1,-1,-1,-1,-1,-1,-1,-1,-1,-1,-1,-1,-1,-1,-1,-1,-1,-1,-1,-1,-1,-1,-1,-1,-1,-1,-1,-1],"split_conditions":[1E-45,1.49E0,3.9E-1,9.1E-1,1E-45,1E-45,1E-45,6.3E-1,1E-45,1E-45,2.09E0,3.0624247E-1,1E-45,1E-45,1E-45,1E-45,1E-45,1.47E0,9.7E-1,1.95E0,1E-45,1.53E0,1E-45,1E-45,1E-45,1.32E0,1E-45,1E-45,1E-45,4.5287862E-2,4.4E-1,8.1231356E-2,8E0,3.256399E-1,9.684601E-1,1E-45,1E-45,1E-45,3.22E0,1E-45,1E-45,1.9E1,1E-45,1E-45,1E-45,2.997255E-1,2.0802942E-1,1E-45,1E-45,1E-45,1.91E0,1.99E0,5.7E-1,4.55E0,1.77E0,1.07E0,1E-45,5.6932927E-3,5.465917E-2,3.215753E-2,1.7145392E-2,8.104908E-3,1.2723917E-2,5.3592145E-2,3.897997E-2,8.576995E-2,-1.2805919E-2,6.5428145E-2,3.5501584E-2,2.5264276E-2,1.6394857E-2,4.4196013E-2,3.2780908E-2,5.3828944E-2,4.329471E-2,5.541386E-2,1.3300436E-2,1.6398814E-2,-3.3333693E-2,5.3646613E-2,8.245342E-2,4.286732E-2,3.1213244E-2,3.9999705E-2,2.4177635E-2,1.7386718E-2,5.725576E-3,1.9293824E-1,9.325856E-2,4.6542905E-2,1.2278645E-2,1.127088E-1,-7.219195E-3,2.2861706E-2,-1.2283461E-3,3.8659186E-3,-4.0551424E-3,2.9287717E-1,-5.8471216E-3,-3.302854E-3,-1.0141741E-2,-2.7399943E-3,-9.486594E-3,7.7015194E-3,-8.846735E-3,-9.649907E-3,-1.4591557E-2],"split_indices":[1,6,6,6,3,2,2,6,3,2,6,0,3,3,1,3,3,6,6,6,3,6,3,2,2,6,2,2,3,8,6,0,11,8,12,2,3,3,6,2,3,11,2,2,2,0,0,1,2,2,6,6,6,6,6,6,3,0,0,0,0,0,0,0,0,0,0,0,0,0,0,0,0,0,0,0,0,0,0,0,0,0,0,0,0,0,0,0,0,0,0,0,0,0,0,0,0,0,0,0,0,0,0,0,0,0,0],"split_type":[1,0,0,0,1,1,1,0,1,1,0,0,1,1,1,1,1,0,0,0,1,0,1,1,1,0,1,1,1,0,0,0,0,0,0,1,1,1,0,1,1,0,1,1,1,0,0,1,1,1,0,0,0,0,0,0,1,0,0,0,0,0,0,0,0,0,0,0,0,0,0,0,0,0,0,0,0,0,0,0,0,0,0,0,0,0,0,0,0,0,0,0,0,0,0,0,0,0,0,0,0,0,0,0,0,0,0],"sum_hessian":[4.08305E5,3.2729E4,3.75576E5,1.0891E4,2.1838E4,4.38E2,3.75138E5,3.194E3,7.697E3,1.5367E4,6.471E3,3.06E2,1.32E2,1.88933E5,1.86205E5,1.562E3,1.632E3,3.89E2,7.308E3,1.2619E4,2.748E3,2.274E3,4.197E3,6.1E1,7.1E1,7.9741E4,1.09192E5,1.51306E5,3.4899E4,6.2E1,1.5E3,5E0,1.627E3,3.66E2,2.3E1,1.63E2,7.145E3,2.018E3,1.0601E4,9.43E2,1.805E3,1.37E2,2.137E3,2.029E3,2.168E3,3.2E1,2.9E1,2.4E1,4.7E1,1.719E4,6.2551E4,4.2162E4,6.703E4,1.00929E5,5.0377E4,1.14E4,2.3499E4,1E0,6.1E1,1.76E2,1.324E3,5.31E2,1.096E3,1.31E2,2.35E2,2.1E1,2E0,7E1,9.3E1,5.911E3,1.234E3,4.09E2,1.609E3,7.515E3,3.086E3,4.85E2,4.58E2,1.792E3,1.3E1,9.7E1,4E1,1.485E3,6.52E2,4.57E2,1.572E3,1.694E3,4.74E2,2.1E1,3E0,2.8E1,1.9E1,8.5E1,1.7105E4,1.6138E4,4.6413E4,1.9975E4,2.2187E4,3.2E1,6.6998E4,9.6804E4,4.125E3,1.8598E4,3.1779E4,2.298E3,9.102E3,2.0634E4,2.865E3],"tree_param":{"num_deleted":"0","num_feature":"14","num_nodes":"107","size_leaf_vector":"1"}},{"base_weights":[1.7907843E-5,3.0213362E-1,-2.631024E-2,2.0354892E-1,3.51288E-1,2.3881783E0,-2.9135684E-2,1.4250883E-1,2.2885673E-1,4.0347692E-1,2.6787302E-1,2.7571797E-1,1.5184671E0,-2.3387477E-3,-4.5209974E-2,1.8764316E-1,1.070224E-1,4.1862345E-1,2.1869968E-1,4.6769154E-1,2.3381661E-1,3.417018E-1,1.9304357E-1,2.349906E0,7.8141594E-1,4.264733E-2,-2.5064273E-2,-3.533664E-2,-7.5056866E-2,2.9419443E-1,1.6050573E-1,7.446208E-2,1.0482048E-1,3.993283E-1,6.9623566E-1,4.3868202E-1,2.136205E-1,4.9525738E-1,3.751908E-1,3.1956103E-1,1.4419198E-1,3.7194464E-1,8.5495114E-2,3.694728E-1,1.7600721E-1,2.706612E-1,1.8791991E0,1.673811E-1,3.003474E-1,-3.3555534E-2,1.1742521E-1,9.343612E-3,-4.9917083E-2,3.8811292E-2,-3.98963E-2,-2.3809282E-2,-8.947511E-2,5.592118E-2,2.6531978E-2,2.3358338E-2,1.1283931E-2,9.809421E-3,1.621535E-2,4.900552E-2,3.462815E-2,7.758283E-2,-1.195219E-2,4.775627E-2,-4.966762E-3,2.4689281E-2,1.8399356E-2,8.9730464E-2,4.7821324E-2,4.8653033E-2,3.2387685E-2,3.8732167E-2,1.1588919E-2,1.4759849E-2,-3.0238423E-2,4.3646228E-2,3.2805305E-2,1.9723995E-2,1.1782664E-3,5.394126E-2,3.0468378E-2,1.4598626E-2,2.317281E-2,1.9932775E-1,1.09067254E-1,4.2049106E-2,1.1112171E-2,-1.8517893E-3,-7.7998796E-3,4.124248E-2,4.3390384E-3,7.539276E-3,-5.050325E-3,-3.2961328E-4,-6.922615E-3,1.912279E-2,-1.807697E-4,-3.6712778E-3,-1.0547037E-2,5.7111606E-3,-1.0753051E-2,1.52856065E-2,-9.123861E-3],"categories":[0,1,2,3,4,5,6,8,9,10,11,0,6,7,9,11,1,3,4,5,6,7,8,0,1,2,3,4,5,6,0,1,2,3,4,5,6,7,8,10,11,5,6,7,11,1,2,3,4,8,0,1,2,3,4,5,7,8,9,10,1,2,3,5,7,8,10,11,5,7,11,0,1,2,3,5,6,7,8,9,10,0,2,3,4,5,6,8,9,10,11,0,2,4,5,6,7,8,9,11,0,1,2,3,4,6,7,8,9,10,11,0,1,2,3,4,5,7,8,9,10,11,2,3,4,5,6,7,8,10,11,11,5,6,7,8,11,0,1,2,3,5,6,7,8,9,10,11,0,1,3,4,5,6,7,8,9,10,11,0,1,2,3,4,5,7,8,9,10,5,1,2,3,4,5,6,7,8,9,10,0,2,3,4,5,6,7,8,9,10,11,2,3,4,5,6,7,10,0,1,2,3,4,5,6,8,9,10,11,3,6,9,0,4,5,7,11,0,1,2,3,5,6,8,9,11,0,1,2,3,4,5,6,7,8,10,11],"categories_nodes":[0,4,5,6,8,9,10,12,13,14,15,16,20,23,24,28,35,36,37,38,39,40,41,43,46,48,49,51,52,53],"categories_segments":[0,11,16,23,30,41,45,50,60,68,71,81,91,100,111,122,131,132,137,148,159,169,170,180,191,198,209,212,217,226],"categories_sizes":[11,5,7,7,11,4,5,10,8,3,10,10,9,11,11,9,1,5,11,11,10,1,10,11,7,11,3,5,9,11],"default_left":[1,0,0,0,1,1,1,0,1,1,1,0,1,1,1,1,1,0,0,0,1,0,0,1,1,0,0,0,1,0,0,0,0,0,0,1,1,1,1,1,1,1,0,1,0,0,1,0,1,1,0,1,1,1,0,0,0,0,0,0,0,0,0,0,0,0,0,0,0,0,0,0,0,0,0,0,0,0,0,0,0,0,0,0,0,0,0,0,0,0,0,0,0,0,0,0,0,0,0,0,0,0,0,0,0,0,0],"id":3,"left_children":[1,3,5,7,9,11,13,15,17,19,21,-1,23,25,27,29,31,33,35,37,39,41,43,45,47,49,51,53,55,57,59,-1,61,63,65,67,69,71,73,75,77,79,81,83,85,-1,87,-1,89,91,93,95,97,99,101,103,105,-1,-1,-1,-1,-1,-1,-1,-1,-1,-1,-1,-1,-1,-1,-1,-1,-1,-1,-1,-1,-1,-1,-1,-1,-1,-1,-1,-1,-1,-1,-1,-1,-1,-1,-1,-1,-1,-1,-1,-1,-1,-1,-1,-1,-1,-1,-1,-1,-1,-1],"loss_changes":[3.2477336E3,1.5853369E2,2.5622566E3,1.6793213E1,9.49646E1,1.3669922E2,1.6158789E2,5.097206E0,1.4746124E1,1.4622778E2,4.6384583E1,0E0,7.966788E1,1.4379922E2,6.909677E1,4.015377E0,2.4363976E0,1.8110352E0,8.072876E0,2.465747E1,2.8310883E1,3.275168E1,1.2492828E1,5.3237915E0,3.04071E1,2.690088E2,7.991263E1,5.957251E1,4.3064667E1,2.0248814E0,3.88196E0,0E0,6.72842E-1,1.596592E0,1.6510077E0,3.1376476E0,6.99881E0,5.0985596E1,1.26458435E1,2.5969864E1,2.792038E0,1.0572327E1,3.687845E0,3.8764038E0,6.342865E0,0E0,5.246048E-1,0E0,1.044519E0,1.5625252E1,5.2036957E2,1.549233E2,4.8844086E1,6.3198162E1,3.464804E1,8.671675E1,1.9452759E1,0E0,0E0,0E0,0E0,0E0,0E0,0E0,0E0,0E0,0E0,0E0,0E0,0E0,0E0,0E0,0E0,0E0,0E0,0E0,0E0,0E0,0E0,0E0,0E0,0E0,0E0,0E0,0E0,0E0,0E0,0E0,0E0,0E0,0E0,0E0,0E0,0E0,0E0,0E0,0E0,0E0,0E0,0E0,0E0,0E0,0E0,0E0,0E0,0E0,0E0],"parents":[2147483647,0,0,1,1,2,2,3,3,4,4,5,5,6,6,7,7,8,8,9,9,10,10,12,12,13,13,14,14,15,15,16,16,17,17,18,18,19,19,20,20,21,21,22,22,23,23,24,24,25,25,26,26,27,27,28,28,29,29,30,30,32,32,33,33,34,34,35,35,36,36,37,37,38,38,39,39,40,40,41,41,42,42,43,43,44,44,46,46,48,48,49,49,50,50,51,51,52,52,53,53,54,54,55,55,56,56],"right_children":[2,4,6,8,10,12,14,16,18,20,22,-1,24,26,28,30,32,34,36,38,40,42,44,46,48,50,52,54,56,58,60,-1,62,64,66,68,70,72,74,76,78,80,82,84,86,-1,88,-1,90,92,94,96,98,100,102,104,106,-1,-1,-1,-1,-1,-1,-1,-1,-1,-1,-1,-1,-1,-1,-1,-1,-1,-1,-1,-1,-1,-1,-1,-1,-1,-1,-1,-1,-1,-1,-1,-1,-1,-1,-1,-1,-1,-1,-1,-1,-1,-1,-1,-1,-1,-1,-1,-1,-1,-1],"split_conditions":[1E-45,1.49E0,3.9E-1,9.1E-1,1E-45,1E-45,1E-45,6.1E-1,1E-45,1E-45,1E-45,2.7571797E-1,1E-45,1E-45,1E-45,1E-45,1E-45,1.47E0,9.7E-1,4.02E0,1E-45,3E0,1.53E0,1E-45,1E-45,1.46E0,2.09E0,5.2736413E-1,1E-45,5.4E-1,4.7E-1,7.446208E-2,3.77E2,1.35E0,9.684601E-1,1E-45,1E-45,1E-45,1E-45,1E-45,1E-45,1E-45,3.21E0,1E-45,3.19E0,2.706612E-1,1E-45,1.673811E-1,1E-45,1E-45,1.95E0,1E-45,1E-45,1E-45,4.55E0,2.02E0,4.7E-1,5.592118E-2,2.6531978E-2,2.3358338E-2,1.1283931E-2,9.809421E-3,1.621535E-2,4.900552E-2,3.462815E-2,7.758283E-2,-1.195219E-2,4.775627E-2,-4.966762E-3,2.4689281E-2,1.8399356E-2,8.9730464E-2,4.7821324E-2,4.8653033E-2,3.2387685E-2,3.8732167E-2,1.1588919E-2,1.4759849E-2,-3.0238423E-2,4.3646228E-2,3.2805305E-2,1.9723995E-2,1.1782664E-3,5.394126E-2,3.0468378E-2,1.4598626E-2,2.317281E-2,1.9932775E-1,1.09067254E-1,4.2049106E-2,1.1112171E-2,-1.8517893E-3,-7.7998796E-3,4.124248E-2,4.3390384E-3,7.539276E-3,-5.050325E-3,-3.2961328E-4,-6.922615E-3,1.912279E-2,-1.807697E-4,-3.6712778E-3,-1.0547037E-2,5.7111606E-3,-1.0753051E-2,1.52856065E-2,-9.123861E-3],"split_indices":[1,6,6,6,3,2,1,6,3,2,2,0,3,2,2,3,3,6,6,6,3,6,6,2,2,6,6,12,3,6,6,0,7,6,12,2,2,3,3,2,3,3,6,2,6,0,1,0,2,3,6,3,3,3,6,6,6,0,0,0,0,0,0,0,0,0,0,0,0,0,0,0,0,0,0,0,0,0,0,0,0,0,0,0,0,0,0,0,0,0,0,0,0,0,0,0,0,0,0,0,0,0,0,0,0,0,0],"split_type":[1,0,0,0,1,1,1,0,1,1,1,0,1,1,1,1,1,0,0,0,1,0,0,1,1,0,0,0,1,0,0,0,0,0,0,1,1,1,1,1,1,1,0,1,0,0,1,0,1,1,0,1,1,1,0,0,0,0,0,0,0,0,0,0,0,0,0,0,0,0,0,0,0,0,0,0,0,0,0,0,0,0,0,0,0,0,0,0,0,0,0,0,0,0,0,0,0,0,0,0,0,0,0,0,0,0,0],"sum_hessian":[4.08305E5,3.2729E4,3.75576E5,1.0891E4,2.1838E4,4.38E2,3.75138E5,3.194E3,7.697E3,1.3431E4,8.407E3,3.06E2,1.32E2,1.40656E5,2.34482E5,1.404E3,1.79E3,3.89E2,7.308E3,9.742E3,3.689E3,4.23E3,4.177E3,6.1E1,7.1E1,4.7207E4,9.3449E4,1.76198E5,5.8284E4,2.83E2,1.121E3,5E0,1.785E3,3.66E2,2.3E1,1.63E2,7.145E3,7.502E3,2.24E3,1.884E3,1.805E3,3.783E3,4.47E2,3.66E2,3.811E3,3.2E1,2.9E1,2.4E1,4.7E1,2.3381E4,2.3826E4,3.9191E4,5.4258E4,1.0207E4,1.65991E5,1.2798E4,4.5486E4,2.6E1,2.57E2,4.41E2,6.8E2,1.6E3,1.85E2,1.32E2,2.34E2,2.1E1,2E0,1.51E2,1.2E1,3.362E3,3.783E3,3.03E2,7.199E3,7.04E2,1.536E3,1.413E3,4.71E2,1.792E3,1.3E1,1.528E3,2.255E3,1.77E2,2.7E2,9.9E1,2.67E2,2.479E3,1.332E3,2.4E1,5E0,2.8E1,1.9E1,1.7471E4,5.91E3,4.779E3,1.9047E4,1.863E4,2.0561E4,1.5891E4,3.8367E4,2.147E3,8.06E3,1.58307E5,7.684E3,6.508E3,6.29E3,3.28E2,4.5158E4],"tree_param":{"num_deleted":"0","num_feature":"14","num_nodes":"107","size_leaf_vector":"1"}},{"base_weights":[2.1105101E-5,2.7194855E-1,-2.367626E-2,1.8323559E-1,3.1618086E-1,2.15181E0,-2.622202E-2,1.283261E-1,2.0600158E-1,3.631481E-1,2.4111181E-1,2.4823599E-1,1.3726325E0,6.4613963E-3,-3.725297E-2,1.6536976E-1,9.279175E-2,3.7714383E-1,1.9684143E-1,4.2094484E-1,2.1044436E-1,3.158411E-1,1.8062069E-1,2.1242552E0,7.0633745E-1,8.0753274E-2,-3.1120727E-2,-1.6833736E-2,-5.231514E-2,4.6331438E-1,1.5275426E-1,6.825691E-2,9.056113E-2,1.6882473E-1,3.991532E-1,3.950747E-1,1.9226447E-1,4.4575E-1,3.3770785E-1,2.8763163E-1,1.2976417E-1,3.4804407E-1,7.699225E-2,3.0554602E-1,1.4725581E-1,2.4441528E-1,1.7015591E0,1.5131252E0,2.714202E-1,-6.465982E-2,1.5679151E-1,1.0397187E-1,-3.512281E-2,1.4360451E-2,-5.1294766E-2,-4.2896103E-2,-7.720261E-2,3.7263308E-2,5.3446002E-2,2.6637305E-2,1.3746122E-2,6.25664E-3,1.0405487E-2,1.0147231E-2,6.065268E-2,4.153978E-2,7.4648E-3,5.938464E-2,3.0268494E-2,2.1470102E-2,1.5220733E-2,8.0786936E-2,4.3039862E-2,4.3064132E-2,2.878954E-2,3.486169E-2,1.0432482E-2,1.3284683E-2,-2.7430573E-2,4.1091453E-2,3.1815868E-2,1.695194E-2,3.6959804E-4,3.8508877E-2,2.2068238E-2,1.1149998E-2,2.0757921E-2,2.238773E-1,1.4739735E-1,1.5854411E-1,7.371059E-2,3.79892E-2,1.0056511E-2,7.260923E-2,-6.552373E-3,2.5684942E-2,-3.2217663E-3,2.6470706E-1,5.6686434E-3,-3.3853718E-3,-4.5708846E-2,2.965271E-2,-7.953161E-4,-1.1316709E-3,-8.826762E-3,-2.8250876E-3,-5.868144E-3,-6.8511986E-3,-9.871014E-3],"categories":[0,1,2,3,4,5,6,8,9,10,11,0,6,7,9,11,1,3,4,5,6,7,8,1,2,3,5,6,7,8,10,11,0,1,2,3,4,5,6,7,8,10,11,5,6,7,11,1,2,3,4,8,11,0,1,2,3,4,5,7,8,9,10,1,2,3,4,5,6,7,10,0,2,3,5,7,8,11,0,1,2,3,4,6,7,8,9,10,0,2,3,4,5,6,8,9,10,11,0,2,4,5,6,7,8,9,11,0,1,2,3,4,6,7,8,9,10,11,0,1,2,3,4,5,7,8,9,10,11,0,1,3,0,1,2,3,5,6,7,8,9,10,11,4,6,7,9,0,1,2,3,5,6,7,8,9,10,11,0,1,3,4,5,6,7,9,10,11,0,1,2,3,4,5,7,8,9,10,5,1,2,3,4,5,6,7,8,9,10,11,0,2,3,4,5,6,7,8,9,10,0,1,2,3,4,5,6,7,9,10,11,2,3,4,5,6,7,10,0,1,2,3,4,5,6,8,9,10,11,0,4,0,1,2,3,5,6,7,8,9,10,11,0,4,5,6,7,8,9,10,11,1,6,9,1,5,7,11,5,7],"categories_nodes":[0,4,5,6,8,9,10,12,13,14,15,16,20,23,24,28,35,36,37,38,39,40,41,43,46,47,48,49,51,53,54,55,56],"categories_segments":[0,11,16,23,32,43,47,53,63,71,78,88,98,107,118,129,132,143,147,158,168,178,179,190,200,211,218,229,231,242,251,254,258],"categories_sizes":[11,5,7,9,11,4,6,10,8,7,10,10,9,11,11,3,11,4,11,10,10,1,11,10,11,7,11,2,11,9,3,4,2],"default_left":[1,0,0,0,1,1,1,0,1,1,1,0,1,1,1,1,1,0,0,0,1,0,0,1,1,0,0,0,1,0,0,0,0,0,0,1,1,1,1,1,1,1,0,1,0,0,1,1,1,1,0,1,0,1,1,1,1,0,0,0,0,0,0,0,0,0,0,0,0,0,0,0,0,0,0,0,0,0,0,0,0,0,0,0,0,0,0,0,0,0,0,0,0,0,0,0,0,0,0,0,0,0,0,0,0,0,0,0,0],"id":4,"left_children":[1,3,5,7,9,11,13,15,17,19,21,-1,23,25,27,29,31,33,35,37,39,41,43,45,47,49,51,53,55,57,59,-1,61,63,65,67,69,71,73,75,77,79,81,83,85,-1,87,89,91,93,95,97,99,101,103,105,107,-1,-1,-1,-1,-1,-1,-1,-1,-1,-1,-1,-1,-1,-1,-1,-1,-1,-1,-1,-1,-1,-1,-1,-1,-1,-1,-1,-1,-1,-1,-1,-1,-1,-1,-1,-1,-1,-1,-1,-1,-1,-1,-1,-1,-1,-1,-1,-1,-1,-1,-1,-1],"loss_changes":[2.6311152E3,1.2837378E2,2.0801038E3,1.3589325E1,7.691211E1,1.0966016E2,1.3524875E2,4.190304E0,1.1993805E1,1.1845923E2,3.795096E1,0E0,6.510628E1,2.6430884E2,8.626175E1,5.8041115E0,2.0865126E0,1.7207489E0,6.5555725E0,1.9965942E1,2.2942093E1,2.8893768E1,1.933258E1,4.224762E0,2.4853096E1,3.5163232E2,3.3991207E1,1.2799478E2,3.7834015E1,2.072916E-1,2.5714874E0,0E0,6.084728E-1,1.0881861E0,1.8245468E0,2.8320236E0,6.3897705E0,4.1361816E1,1.0250122E1,2.1036057E1,2.2860146E0,6.0941467E0,3.0376623E0,6.5235367E0,7.89489E0,0E0,3.679657E-1,2.3432922E-1,8.513782E-1,7.507427E0,3.9492572E2,2.1738496E2,3.2680878E1,3.9348697E2,8.361676E1,2.7068817E1,8.276337E0,0E0,0E0,0E0,0E0,0E0,0E0,0E0,0E0,0E0,0E0,0E0,0E0,0E0,0E0,0E0,0E0,0E0,0E0,0E0,0E0,0E0,0E0,0E0,0E0,0E0,0E0,0E0,0E0,0E0,0E0,0E0,0E0,0E0,0E0,0E0,0E0,0E0,0E0,0E0,0E0,0E0,0E0,0E0,0E0,0E0,0E0,0E0,0E0,0E0,0E0,0E0,0E0],"parents":[2147483647,0,0,1,1,2,2,3,3,4,4,5,5,6,6,7,7,8,8,9,9,10,10,12,12,13,13,14,14,15,15,16,16,17,17,18,18,19,19,20,20,21,21,22,22,23,23,24,24,25,25,26,26,27,27,28,28,29,29,30,30,32,32,33,33,34,34,35,35,36,36,37,37,38,38,39,39,40,40,41,41,42,42,43,43,44,44,46,46,47,47,48,48,49,49,50,50,51,51,52,52,53,53,54,54,55,55,56,56],"right_children":[2,4,6,8,10,12,14,16,18,20,22,-1,24,26,28,30,32,34,36,38,40,42,44,46,48,50,52,54,56,58,60,-1,62,64,66,68,70,72,74,76,78,80,82,84,86,-1,88,90,92,94,96,98,100,102,104,106,108,-1,-1,-1,-1,-1,-1,-1,-1,-1,-1,-1,-1,-1,-1,-1,-1,-1,-1,-1,-1,-1,-1,-1,-1,-1,-1,-1,-1,-1,-1,-1,-1,-1,-1,-1,-1,-1,-1,-1,-1,-1,-1,-1,-1,-1,-1,-1,-1,-1,-1,-1,-1],"split_conditions":[1E-45,1.49E0,3.9E-1,9.1E-1,1E-45,1E-45,1E-45,6.3E-1,1E-45,1E-45,1E-45,2.4823599E-1,1E-45,1E-45,1E-45,1E-45,1E-45,1.17E2,9.7E-1,4.02E0,1E-45,3E0,1.74E0,1E-45,1E-45,1.23E0,5.7E-1,2.04E0,1E-45,3.6623394E-1,4.4E-1,6.825691E-2,8E0,1.43E0,9.818008E-1,1E-45,1E-45,1E-45,1E-45,1E-45,1E-45,1E-45,3.23E0,1E-45,3.18E0,2.4441528E-1,1E-45,1E-45,1E-45,1E-45,3.32E0,1E-45,6.26E0,1E-45,1E-45,1E-45,1E-45,3.7263308E-2,5.3446002E-2,2.6637305E-2,1.3746122E-2,6.25664E-3,1.0405487E-2,1.0147231E-2,6.065268E-2,4.153978E-2,7.4648E-3,5.938464E-2,3.0268494E-2,2.1470102E-2,1.5220733E-2,8.0786936E-2,4.3039862E-2,4.3064132E-2,2.878954E-2,3.486169E-2,1.0432482E-2,1.3284683E-2,-2.7430573E-2,4.1091453E-2,3.1815868E-2,1.695194E-2,3.6959804E-4,3.8508877E-2,2.2068238E-2,1.1149998E-2,2.0757921E-2,2.238773E-1,1.4739735E-1,1.5854411E-1,7.371059E-2,3.79892E-2,1.0056511E-2,7.260923E-2,-6.552373E-3,2.5684942E-2,-3.2217663E-3,2.6470706E-1,5.6686434E-3,-3.3853718E-3,-4.5708846E-2,2.965271E-2,-7.953161E-4,-1.1316709E-3,-8.826762E-3,-2.8250876E-3,-5.868144E-3,-6.8511986E-3,-9.871014E-3],"split_indices":[1,6,6,6,3,2,2,6,3,2,2,0,3,3,3,3,3,7,6,6,3,6,6,2,2,6,6,6,1,8,6,0,11,6,12,2,3,3,3,2,3,3,6,2,6,0,1,1,2,2,6,2,6,2,3,2,3,0,0,0,0,0,0,0,0,0,0,0,0,0,0,0,0,0,0,0,0,0,0,0,0,0,0,0,0,0,0,0,0,0,0,0,0,0,0,0,0,0,0,0,0,0,0,0,0,0,0,0,0],"split_type":[1,0,0,0,1,1,1,0,1,1,1,0,1,1,1,1,1,0,0,0,1,0,0,1,1,0,0,0,1,0,0,0,0,0,0,1,1,1,1,1,1,1,0,1,0,0,1,1,1,1,0,1,0,1,1,1,1,0,0,0,0,0,0,0,0,0,0,0,0,0,0,0,0,0,0,0,0,0,0,0,0,0,0,0,0,0,0,0,0,0,0,0,0,0,0,0,0,0,0,0,0,0,0,0,0,0,0,0,0],"sum_hessian":[4.08305E5,3.2729E4,3.75576E5,1.0891E4,2.1838E4,4.38E2,3.75138E5,3.194E3,7.697E3,1.3431E4,8.407E3,3.06E2,1.32E2,9.4663E4,2.80475E5,1.562E3,1.632E3,3.89E2,7.308E3,9.742E3,3.689E3,3.759E3,4.648E3,6.1E1,7.1E1,3.18E4,6.2863E4,1.19065E5,1.6141E5,6.2E1,1.5E3,5E0,1.627E3,3.8E1,3.51E2,1.63E2,7.145E3,7.502E3,2.24E3,1.884E3,1.805E3,3.312E3,4.47E2,9.78E2,3.67E3,3.2E1,2.9E1,2.4E1,4.7E1,1.0919E4,2.0881E4,1.808E3,6.1055E4,6.2495E4,5.657E4,1.17096E5,4.4314E4,3E1,3.2E1,1.76E2,1.324E3,5.31E2,1.096E3,3.4E1,4E0,3.34E2,1.7E1,5E1,1.13E2,4.577E3,2.568E3,3.03E2,7.199E3,7.79E2,1.461E3,1.413E3,4.71E2,1.792E3,1.3E1,1.063E3,2.249E3,1.97E2,2.5E2,5.03E2,4.75E2,2.306E3,1.364E3,6E0,2.3E1,2.1E1,3E0,2.8E1,1.9E1,1.1E1,1.0908E4,1.3653E4,7.228E3,3.2E1,1.776E3,6.0873E4,1.82E2,4.579E3,5.7916E4,2.7181E4,2.9389E4,6.0743E4,5.6353E4,3.1564E4,1.275E4],"tree_param":{"num_deleted":"0","num_feature":"14","num_nodes":"109","size_leaf_vector":"1"}},{"base_weights":[2.4698174E-5,2.447803E-1,-2.1304753E-2,1.6328026E-1,2.8378323E-1,1.9392354E0,-2.3598984E-2,1.8998559E-1,1.2587881E-1,3.257178E-1,2.1748285E-1,2.2349325E-1,1.242106E0,3.133564E-4,-3.7942942E-2,1.1428283E-1,2.0354404E-1,5.128846E-1,1.1980013E-1,3.766871E-1,1.8937542E-1,2.8500143E-1,1.6444248E-1,1.9217601E0,6.395968E-1,3.3024162E-2,-2.33038E-2,-2.7716165E-2,-5.8485504E-2,1.3587904E-1,4.2035382E-2,3.6282617E-1,1.9297239E-1,5.516245E-1,2.861296E-1,1.9397959E-1,1.0079787E-1,2.1741195E-1,3.8976586E-1,2.5879115E-1,1.16779916E-1,3.1396568E-1,6.933173E-2,2.6730397E-1,1.3253891E-1,2.207144E-1,1.5437791E0,1.3711029E0,2.452791E-1,9.838357E-2,-1.064091E-2,-2.0113694E-3,-3.900991E-2,1.9051611E-2,-3.3528477E-2,-7.4468805E-3,-7.580995E-2,2.041444E-2,9.7646E-3,2.7723096E-3,4.142675E-2,4.3797057E-2,2.3909135E-2,2.3459753E-2,1.5752312E-2,1.8970752E-2,5.7535958E-2,8.893521E-3,4.685015E-2,3.6747538E-2,1.24055585E-2,1.2090911E-2,8.1178695E-3,2.7827043E-2,7.5702253E-3,4.1766766E-2,3.0396914E-2,4.2539634E-2,2.0081192E-2,1.1956955E-2,-2.4883451E-2,3.4212373E-2,2.5804877E-2,1.6077006E-2,9.016771E-4,3.477519E-2,1.9598817E-2,8.902679E-3,1.7344983E-2,1.6420664E-1,8.76952E-2,1.4341037E-1,6.8182305E-2,3.310546E-2,6.939119E-3,1.7029913E-2,1.1605461E-3,-9.278954E-4,-4.1047934E-2,7.513873E-3,-1.3872848E-3,-4.705959E-3,-1.5222601E-3,1.5582345E-2,-8.915172E-4,-3.0349535E-3,-9.263798E-3,5.801925E-3,-6.799962E-3,1.4428243E-2,-7.70602E-3],"categories":[0,1,2,3,4,5,6,8,9,10,11,5,7,10,11,0,6,7,9,11,1,3,4,5,6,7,8,0,1,2,3,4,5,6,5,6,7,11,1,2,3,4,8,11,0,1,2,3,4,5,7,8,9,10,2,3,5,7,8,10,11,5,6,7,11,0,2,3,4,5,6,7,8,9,11,0,2,4,5,6,7,8,9,11,0,1,2,3,4,6,7,8,9,10,11,0,1,2,3,4,5,7,8,9,10,11,2,3,4,5,6,7,10,0,2,3,5,7,8,11,2,3,4,5,6,7,8,10,11,0,1,2,3,4,5,6,7,8,10,11,0,1,2,3,5,6,7,8,9,10,11,0,1,4,5,7,8,0,1,2,3,4,5,7,8,10,0,1,2,3,4,5,6,7,8,9,10,5,0,2,3,4,5,6,7,8,9,10,2,3,4,5,6,7,10,2,3,4,5,6,7,10,0,2,3,4,5,6,7,10,0,1,2,3,4,5,6,7,8,10,11],"categories_nodes":[0,3,4,5,6,9,10,12,13,14,18,20,23,24,25,26,28,29,31,32,36,39,40,43,46,47,48,53],"categories_segments":[0,11,15,20,27,34,38,44,54,61,65,75,84,95,106,113,120,129,140,151,157,166,177,178,188,195,202,210],"categories_sizes":[11,4,5,7,7,4,6,10,7,4,10,9,11,11,7,7,9,11,11,6,9,11,1,10,7,7,8,11],"default_left":[1,0,0,1,1,1,1,0,0,1,1,0,1,1,1,0,0,0,1,0,1,0,0,1,1,1,1,1,1,1,0,1,1,0,0,0,1,0,0,1,1,0,0,1,0,0,1,1,1,0,0,0,1,1,0,0,0,0,0,0,0,0,0,0,0,0,0,0,0,0,0,0,0,0,0,0,0,0,0,0,0,0,0,0,0,0,0,0,0,0,0,0,0,0,0,0,0,0,0,0,0,0,0,0,0,0,0,0,0,0,0],"id":5,"left_children":[1,3,5,7,9,11,13,15,17,19,21,-1,23,25,27,29,31,33,35,37,39,41,43,45,47,49,51,53,55,57,59,61,63,65,67,69,71,73,75,77,79,81,83,85,87,-1,89,91,93,95,97,99,101,103,105,107,109,-1,-1,-1,-1,-1,-1,-1,-1,-1,-1,-1,-1,-1,-1,-1,-1,-1,-1,-1,-1,-1,-1,-1,-1,-1,-1,-1,-1,-1,-1,-1,-1,-1,-1,-1,-1,-1,-1,-1,-1,-1,-1,-1,-1,-1,-1,-1,-1,-1,-1,-1,-1,-1,-1],"loss_changes":[2.1315676E3,1.03993774E2,1.6893662E3,1.055954E1,6.1470825E1,8.771912E1,1.286718E2,6.3199615E0,1.0329491E1,9.413989E1,3.0676392E1,0E0,5.3234055E1,1.0866339E2,4.9259552E1,1.4625044E0,8.7535095E0,4.3950844E-1,6.1121025E0,2.0469482E1,1.8569717E1,2.3547028E1,1.5739456E1,3.2805786E0,2.0431795E1,1.6831117E2,2.7316452E1,4.2555458E1,6.890988E1,1.8697004E0,1.1499087E0,2.9171295E0,7.2170105E0,3.8048744E-1,3.898862E-1,1.0702942E1,1.357357E0,6.4557343E0,2.169812E1,1.813266E1,1.8717518E0,5.148529E0,2.4693148E0,6.4550476E0,6.5193863E0,0E0,5.26207E-1,1.0782623E-1,7.011974E-1,1.4740326E2,1.924974E1,3.1733543E1,9.000389E0,6.619801E1,2.6162125E1,7.8299934E1,1.6021698E1,0E0,0E0,0E0,0E0,0E0,0E0,0E0,0E0,0E0,0E0,0E0,0E0,0E0,0E0,0E0,0E0,0E0,0E0,0E0,0E0,0E0,0E0,0E0,0E0,0E0,0E0,0E0,0E0,0E0,0E0,0E0,0E0,0E0,0E0,0E0,0E0,0E0,0E0,0E0,0E0,0E0,0E0,0E0,0E0,0E0,0E0,0E0,0E0,0E0,0E0,0E0,0E0,0E0,0E0],"parents":[2147483647,0,0,1,1,2,2,3,3,4,4,5,5,6,6,7,7,8,8,9,9,10,10,12,12,13,13,14,14,15,15,16,16,17,17,18,18,19,19,20,20,21,21,22,22,23,23,24,24,25,25,26,26,27,27,28,28,29,29,30,30,31,31,32,32,33,33,34,34,35,35,36,36,37,37,38,38,39,39,40,40,41,41,42,42,43,43,44,44,46,46,47,47,48,48,49,49,50,50,51,51,52,52,53,53,54,54,55,55,56,56],"right_children":[2,4,6,8,10,12,14,16,18,20,22,-1,24,26,28,30,32,34,36,38,40,42,44,46,48,50,52,54,56,58,60,62,64,66,68,70,72,74,76,78,80,82,84,86,88,-1,90,92,94,96,98,100,102,104,106,108,110,-1,-1,-1,-1,-1,-1,-1,-1,-1,-1,-1,-1,-1,-1,-1,-1,-1,-1,-1,-1,-1,-1,-1,-1,-1,-1,-1,-1,-1,-1,-1,-1,-1,-1,-1,-1,-1,-1,-1,-1,-1,-1,-1,-1,-1,-1,-1,-1,-1,-1,-1,-1,-1,-1],"split_conditions":[1E-45,1.47E0,3.9E-1,1E-45,1E-45,1E-45,1E-45,7.4E-1,4.7E-1,1E-45,1E-45,2.2349325E-1,1E-45,1E-45,1E-45,6.2E-1,1.01E0,2.83E2,1E-45,1.77E0,1E-45,3E0,1.74E0,1E-45,1E-45,1E-45,1E-45,5.67503E-1,1E-45,1E-45,3.97E2,1E-45,1E-45,1.1075541E-1,4.1903192E-1,1.23E0,1E-45,1.73E0,4.02E0,1E-45,1E-45,9.173789E-1,3.21E0,1E-45,2.9E0,2.207144E-1,1E-45,1E-45,1E-45,2.46E0,6.26E0,9.9E-1,9.9029124E-1,1E-45,4.55E0,2.02E0,4.7E-1,2.041444E-2,9.7646E-3,2.7723096E-3,4.142675E-2,4.3797057E-2,2.3909135E-2,2.3459753E-2,1.5752312E-2,1.8970752E-2,5.7535958E-2,8.893521E-3,4.685015E-2,3.6747538E-2,1.24055585E-2,1.2090911E-2,8.1178695E-3,2.7827043E-2,7.5702253E-3,4.1766766E-2,3.0396914E-2,4.2539634E-2,2.0081192E-2,1.1956955E-2,-2.4883451E-2,3.4212373E-2,2.5804877E-2,1.6077006E-2,9.016771E-4,3.477519E-2,1.9598817E-2,8.902679E-3,1.7344983E-2,1.6420664E-1,8.76952E-2,1.4341037E-1,6.8182305E-2,3.310546E-2,6.939119E-3,1.7029913E-2,1.1605461E-3,-9.278954E-4,-4.1047934E-2,7.513873E-3,-1.3872848E-3,-4.705959E-3,-1.5222601E-3,1.5582345E-2,-8.915172E-4,-3.0349535E-3,-9.263798E-3,5.801925E-3,-6.799962E-3,1.4428243E-2,-7.70602E-3],"split_indices":[1,6,6,2,3,2,1,6,6,2,2,0,3,2,2,6,6,7,3,6,3,6,6,2,2,3,3,12,3,2,7,2,3,8,8,6,3,6,6,2,3,12,6,2,6,0,1,1,1,6,6,6,12,3,6,6,6,0,0,0,0,0,0,0,0,0,0,0,0,0,0,0,0,0,0,0,0,0,0,0,0,0,0,0,0,0,0,0,0,0,0,0,0,0,0,0,0,0,0,0,0,0,0,0,0,0,0,0,0,0,0],"split_type":[1,0,0,1,1,1,1,0,0,1,1,0,1,1,1,0,0,0,1,0,1,0,0,1,1,1,1,0,1,1,0,1,1,0,0,0,1,0,0,1,1,0,0,1,0,0,1,1,1,0,0,0,0,1,0,0,0,0,0,0,0,0,0,0,0,0,0,0,0,0,0,0,0,0,0,0,0,0,0,0,0,0,0,0,0,0,0,0,0,0,0,0,0,0,0,0,0,0,0,0,0,0,0,0,0,0,0,0,0,0,0],"sum_hessian":[4.08305E5,3.2729E4,3.75576E5,1.0595E4,2.2134E4,4.38E2,3.75138E5,6.179E3,4.416E3,1.3556E4,8.578E3,3.06E2,1.32E2,1.40656E5,2.34482E5,9.4E2,5.239E3,6.7E1,4.349E3,9.866E3,3.69E3,3.772E3,4.806E3,6.1E1,7.1E1,5.8974E4,8.1682E4,1.56549E5,7.7933E4,7.23E2,2.17E2,3.24E2,4.915E3,5.6E1,1.1E1,8.85E2,3.464E3,7.5E2,9.116E3,1.885E3,1.805E3,3.325E3,4.47E2,1.136E3,3.67E3,3.2E1,2.9E1,2.4E1,4.7E1,2.3619E4,3.5355E4,3.4675E4,4.7007E4,1.7305E4,1.39244E5,1.975E4,5.8183E4,2.58E2,4.65E2,2.1E2,7E0,2E2,1.24E2,2.258E3,2.657E3,4E0,5.2E1,6E0,5E0,2.53E2,6.32E2,1.708E3,1.756E3,5.24E2,2.26E2,6.876E3,2.24E3,4.85E2,1.4E3,1.792E3,1.3E1,2.208E3,1.117E3,1.77E2,2.7E2,5.32E2,6.04E2,1.78E3,1.89E3,2.4E1,5E0,2.1E1,3E0,3.1E1,1.6E1,1.2915E4,1.0704E4,3.5236E4,1.19E2,4.62E3,3.0055E4,3.5121E4,1.1886E4,2.937E3,1.4368E4,1.32139E5,7.105E3,9.49E3,1.026E4,3.28E2,5.7855E4],"tree_param":{"num_deleted":"0","num_feature":"14","num_nodes":"111","size_leaf_vector":"1"}},{"base_weights":[2.6220805E-5,2.2032359E-1,-1.9171795E-2,1.4842343E-1,2.5617304E-1,1.7474707E0,-2.1239126E-2,2.0571525E-1,1.3211212E-1,2.9424536E-1,1.9532107E-1,2.012167E-1,1.1233408E0,2.8184475E-4,-3.4148607E-2,3.2230425E-1,1.7837022E-1,1.45359E-1,9.3279324E-2,3.410875E-1,1.7048463E-1,2.69537E-1,1.5503277E-1,1.7372069E0,5.79132E-1,2.515041E-2,-2.4939992E-2,9.390258E-3,-3.8071346E-2,1.5697134E-1,3.395383E-1,2.8336537E-1,1.7011984E-1,1.5796106E-1,6.786151E-2,3.6502254E-1,8.902143E-2,1.9935793E-1,3.5079718E-1,2.3049021E-1,1.01922296E-1,5.365631E-1,2.562748E-1,2.4785367E-1,1.1709245E-1,1.9931181E-1,1.3977978E0,1.2424562E0,2.2158542E-1,1.1530188E-1,6.9495733E-3,-3.670752E-2,-5.1375246E-3,1.9245386E-1,-2.686547E-2,-3.116316E-2,-5.6657545E-2,7.7144005E-3,4.286526E-2,4.3181125E-2,2.9891288E-2,7.6199025E-2,2.5267607E-2,2.4461253E-2,1.5889253E-2,2.0598127E-2,1.1134458E-2,9.652696E-3,-9.661021E-3,2.554214E-2,4.4216674E-2,1.263257E-2,7.925062E-3,2.731269E-2,6.816534E-3,3.7590694E-2,2.7358577E-2,2.7968511E-2,7.1877735E-3,8.797208E-3,1.3928301E-2,6.106047E-2,4.5918263E-2,3.048653E-2,2.0210968E-2,4.2730685E-2,1.32246865E-2,8.901876E-3,1.7049836E-2,1.9061296E-1,1.1912929E-1,1.297212E-1,6.306862E-2,3.193694E-2,6.8719434E-3,-5.290663E-3,2.040236E-2,2.8173616E-3,-4.123096E-3,-1.1981963E-3,-4.536796E-3,2.8889347E-3,-2.006243E-3,2.9961988E-2,-2.7363559E-3,-2.4723285E-3,-4.0951822E-2,1.323564E-3,-3.4133743E-3,-1.6404119E-3,-6.7982688E-3],"categories":[0,1,2,3,4,5,6,8,9,10,11,4,5,6,7,8,9,10,11,0,6,7,9,11,1,3,4,5,6,7,8,0,1,2,3,4,5,6,0,1,2,3,4,5,7,8,10,11,0,1,2,3,7,10,11,5,6,7,11,0,1,2,3,4,5,7,8,9,10,2,3,5,7,10,11,1,2,3,4,5,6,7,8,9,10,11,0,1,2,3,4,6,7,8,9,10,11,1,2,3,4,5,7,8,10,11,0,1,2,3,4,6,7,8,9,10,11,0,1,2,3,4,5,7,8,9,10,11,0,1,2,3,4,5,6,7,10,11,0,1,2,3,4,5,6,7,8,10,11,5,7,11,0,1,3,4,5,6,7,8,9,10,11,0,1,2,3,2,3,4,7,8,9,4,0,2,4,5,6,7,9,11,0,1,2,3,4,5,6,8,10,0,1,2,3,4,5,6,7,9,10,11,2,3,4,5,6,7,10,0,1,2,3,4,5,6,8,9,10,11,9,10,11,0,2,3,5,7,8,9,11,0,1,2,3,4,5,6,7,9,10,11,2,3,4,5,6,7,8,10,11],"categories_nodes":[0,3,4,5,6,7,8,9,12,13,14,21,22,23,24,25,27,28,31,32,33,34,39,42,46,47,48,51,52,55,56],"categories_segments":[0,11,19,24,31,38,48,55,59,69,75,86,97,106,117,128,138,149,152,163,167,173,174,182,191,202,209,220,223,231,242],"categories_sizes":[11,8,5,7,7,10,7,4,10,6,11,11,9,11,11,10,11,3,11,4,6,1,8,9,11,7,11,3,8,11,9],"default_left":[1,0,0,1,1,1,1,1,1,1,0,0,1,1,1,0,1,0,0,0,0,1,1,1,1,1,1,1,1,0,0,1,1,1,1,0,0,0,0,1,0,0,1,0,0,0,1,1,1,0,0,1,1,0,0,1,1,0,0,0,0,0,0,0,0,0,0,0,0,0,0,0,0,0,0,0,0,0,0,0,0,0,0,0,0,0,0,0,0,0,0,0,0,0,0,0,0,0,0,0,0,0,0,0,0,0,0,0,0,0,0],"id":6,"left_children":[1,3,5,7,9,11,13,15,17,19,21,-1,23,25,27,29,31,33,35,37,39,41,43,45,47,49,51,53,55,57,59,61,63,65,67,69,71,73,75,77,79,81,83,85,87,-1,89,91,93,95,97,99,101,103,105,107,109,-1,-1,-1,-1,-1,-1,-1,-1,-1,-1,-1,-1,-1,-1,-1,-1,-1,-1,-1,-1,-1,-1,-1,-1,-1,-1,-1,-1,-1,-1,-1,-1,-1,-1,-1,-1,-1,-1,-1,-1,-1,-1,-1,-1,-1,-1,-1,-1,-1,-1,-1,-1,-1,-1],"loss_changes":[1.7268416E3,8.432617E1,1.371733E3,1.0151459E1,5.0538574E1,7.026477E1,1.04222855E2,7.6322784E0,4.349182E0,7.781006E1,2.5098389E1,0E0,4.3425415E1,8.8225044E1,4.0048065E1,1.2488594E0,1.6461716E0,6.1635284E0,2.4667435E0,1.3337891E1,1.5157623E1,1.0334274E1,1.9171051E1,2.5992584E0,1.680088E1,1.1621115E2,1.6272724E1,1.2863889E2,2.761676E1,9.4287384E-1,1.4191132E0,1.8785639E0,1.4799538E0,1.214798E1,4.1865087E0,1.6607952E-1,7.656288E-1,6.049452E0,1.7572876E1,1.5328247E1,8.8628006E-1,5.1600266E-1,7.3577423E0,3.2742912E1,5.7901115E0,0E0,8.784332E-1,1.9309998E-2,6.9554925E-1,1.7755862E2,6.0261116E1,9.379169E0,1.32203665E1,7.548471E1,1.3251193E1,2.068335E1,2.6569641E1,0E0,0E0,0E0,0E0,0E0,0E0,0E0,0E0,0E0,0E0,0E0,0E0,0E0,0E0,0E0,0E0,0E0,0E0,0E0,0E0,0E0,0E0,0E0,0E0,0E0,0E0,0E0,0E0,0E0,0E0,0E0,0E0,0E0,0E0,0E0,0E0,0E0,0E0,0E0,0E0,0E0,0E0,0E0,0E0,0E0,0E0,0E0,0E0,0E0,0E0,0E0,0E0,0E0,0E0],"parents":[2147483647,0,0,1,1,2,2,3,3,4,4,5,5,6,6,7,7,8,8,9,9,10,10,12,12,13,13,14,14,15,15,16,16,17,17,18,18,19,19,20,20,21,21,22,22,23,23,24,24,25,25,26,26,27,27,28,28,29,29,30,30,31,31,32,32,33,33,34,34,35,35,36,36,37,37,38,38,39,39,40,40,41,41,42,42,43,43,44,44,46,46,47,47,48,48,49,49,50,50,51,51,52,52,53,53,54,54,55,55,56,56],"right_children":[2,4,6,8,10,12,14,16,18,20,22,-1,24,26,28,30,32,34,36,38,40,42,44,46,48,50,52,54,56,58,60,62,64,66,68,70,72,74,76,78,80,82,84,86,88,-1,90,92,94,96,98,100,102,104,106,108,110,-1,-1,-1,-1,-1,-1,-1,-1,-1,-1,-1,-1,-1,-1,-1,-1,-1,-1,-1,-1,-1,-1,-1,-1,-1,-1,-1,-1,-1,-1,-1,-1,-1,-1,-1,-1,-1,-1,-1,-1,-1,-1,-1,-1,-1,-1,-1,-1,-1,-1,-1,-1,-1,-1],"split_conditions":[1E-45,1.49E0,3.9E-1,1E-45,1E-45,1E-45,1E-45,1E-45,1E-45,1E-45,2.09E0,2.012167E-1,1E-45,1E-45,1E-45,1.18E2,5.854193E-1,1.27E0,5.8E-1,1.77E0,3.03E0,1E-45,1E-45,1E-45,1E-45,1E-45,9.098339E-1,1E-45,1E-45,1.43E0,4.876033E-1,1E-45,1E-45,1E-45,1E-45,3.549175E-1,7E-1,1.73E0,4.02E0,1E-45,3.24E0,1.6E2,1E-45,2.61E0,3.19E0,1.9931181E-1,1E-45,1E-45,1E-45,1.27E0,2.58E0,1E-45,1E-45,1.91E0,3.53E0,1E-45,1E-45,7.7144005E-3,4.286526E-2,4.3181125E-2,2.9891288E-2,7.6199025E-2,2.5267607E-2,2.4461253E-2,1.5889253E-2,2.0598127E-2,1.1134458E-2,9.652696E-3,-9.661021E-3,2.554214E-2,4.4216674E-2,1.263257E-2,7.925062E-3,2.731269E-2,6.816534E-3,3.7590694E-2,2.7358577E-2,2.7968511E-2,7.1877735E-3,8.797208E-3,1.3928301E-2,6.106047E-2,4.5918263E-2,3.048653E-2,2.0210968E-2,4.2730685E-2,1.32246865E-2,8.901876E-3,1.7049836E-2,1.9061296E-1,1.1912929E-1,1.297212E-1,6.306862E-2,3.193694E-2,6.8719434E-3,-5.290663E-3,2.040236E-2,2.8173616E-3,-4.123096E-3,-1.1981963E-3,-4.536796E-3,2.8889347E-3,-2.006243E-3,2.9961988E-2,-2.7363559E-3,-2.4723285E-3,-4.0951822E-2,1.323564E-3,-3.4133743E-3,-1.6404119E-3,-6.7982688E-3],"split_indices":[1,6,6,2,3,2,1,3,2,2,6,0,3,2,2,7,12,6,6,6,6,2,2,2,2,3,12,3,2,6,12,3,4,3,2,8,6,6,6,3,6,7,3,6,6,0,1,1,2,6,6,1,3,6,6,3,3,0,0,0,0,0,0,0,0,0,0,0,0,0,0,0,0,0,0,0,0,0,0,0,0,0,0,0,0,0,0,0,0,0,0,0,0,0,0,0,0,0,0,0,0,0,0,0,0,0,0,0,0,0,0],"split_type":[1,0,0,1,1,1,1,1,1,1,0,0,1,1,1,0,0,0,0,0,0,1,1,1,1,1,0,1,1,0,0,1,1,1,1,0,0,0,0,1,0,0,1,0,0,0,1,1,1,0,0,1,1,0,0,1,1,0,0,0,0,0,0,0,0,0,0,0,0,0,0,0,0,0,0,0,0,0,0,0,0,0,0,0,0,0,0,0,0,0,0,0,0,0,0,0,0,0,0,0,0,0,0,0,0,0,0,0,0,0,0],"sum_hessian":[4.08305E5,3.2729E4,3.75576E5,1.0891E4,2.1838E4,4.38E2,3.75138E5,2.411E3,8.48E3,1.3431E4,8.407E3,3.06E2,1.32E2,1.40656E5,2.34482E5,4.56E2,1.955E3,6.321E3,2.159E3,9.742E3,3.689E3,2.956E3,5.451E3,6.1E1,7.1E1,7.0824E4,6.9832E4,1.938E4,2.15102E5,4.4E1,4.12E2,1.4E2,1.815E3,5.436E3,8.85E2,3.2E1,2.127E3,6.26E2,9.116E3,1.966E3,1.723E3,1.38E2,2.818E3,1.58E3,3.871E3,3.2E1,2.9E1,2.4E1,4.7E1,1.1896E4,5.8928E4,4.3802E4,2.603E4,3.203E3,1.6177E4,1.56818E5,5.8284E4,3.5E1,9E0,1.23E2,2.89E2,7E0,1.33E2,2.35E2,1.58E3,2.676E3,2.76E3,7.54E2,1.31E2,1.5E1,1.7E1,4.39E2,1.688E3,4E2,2.26E2,6.876E3,2.24E3,1.5E3,4.66E2,1.257E3,4.66E2,6.7E1,7.1E1,1.483E3,1.335E3,6.18E2,9.62E2,2.539E3,1.332E3,6E0,2.3E1,2.1E1,3E0,2.8E1,1.9E1,4.108E3,7.788E3,4.0908E4,1.802E4,1.1363E4,3.2439E4,7.936E3,1.8094E4,2.153E3,1.05E3,1.6088E4,8.9E1,9.834E3,1.46984E5,1.2798E4,4.5486E4],"tree_param":{"num_deleted":"0","num_feature":"14","num_nodes":"111","size_leaf_vector":"1"}},{"base_weights":[2.7755528E-5,1.9831517E-1,-1.7252183E-2,1.3361664E-1,2.305739E-1,1.5748692E0,-1.911529E-2,1.8525377E-1,1.1891527E-1,2.7297887E-1,1.862496E-1,1.8116058E-1,1.0165757E0,-2.7578154E-3,-3.317541E-2,2.903444E-1,1.6060567E-1,9.1297716E-2,1.3431318E-1,3.361698E-1,2.1307021E-1,2.5157145E-1,1.4377928E-1,1.5716969E0,5.244355E-1,3.5050977E-2,-1.549861E-2,-2.778861E-2,-6.0248245E-2,3.0149177E-1,6.689002E-2,2.5574845E-1,1.5313004E-1,1.23536326E-1,5.712016E-2,1.9830292E-1,1.1355232E-1,3.7686613E-1,2.5592774E-1,2.3905814E-1,7.8308314E-2,2.8974587E-1,1.8396711E-1,2.1029744E-1,1.2139392E-1,1.7998461E-1,1.2683429E0,1.1259222E0,2.0023543E-1,1.1645681E-1,-5.9345695E-3,7.5964704E-3,-3.4895927E-2,2.0526148E-2,-3.0719554E-2,-3.2271147E-2,-8.0180764E-2,2.8494988E-2,5.1530916E-2,2.232268E-2,-2.011035E-2,6.953161E-2,2.2759704E-2,2.2025492E-2,1.4301329E-2,3.8833704E-2,1.1233981E-2,4.066381E-3,8.293796E-3,2.9304469E-2,1.489797E-2,1.5047907E-2,7.3830932E-3,4.6131786E-2,2.9196996E-2,3.3726975E-2,2.0477138E-2,2.7537897E-2,1.86713E-2,8.393561E-3,-2.6980177E-2,2.720946E-2,4.46105E-2,3.7255574E-2,1.015974E-2,2.809909E-2,1.4950955E-2,1.5672822E-2,7.916168E-3,1.6340275E-1,1.03381E-1,1.3237578E-1,8.7592594E-2,4.372417E-2,1.34330345E-2,-5.5498197E-3,2.0552535E-2,8.816422E-5,-9.311977E-3,1.2489865E-2,-1.2508313E-3,7.0387276E-4,-4.951799E-3,1.2279089E-2,-6.2323955E-4,-1.8829819E-3,-3.9153746E-3,2.741656E-2,-5.08392E-3,1.4003058E-2,-8.312158E-3],"categories":[0,1,2,3,4,5,6,8,9,10,11,4,5,6,7,8,9,10,11,0,6,7,8,9,11,1,3,4,5,6,7,8,0,1,2,3,4,5,0,1,2,3,4,5,7,8,10,11,0,1,5,6,7,8,11,1,2,3,7,8,11,0,1,2,3,4,5,7,8,9,10,1,2,3,5,6,7,8,10,11,5,7,2,3,4,5,7,9,10,0,1,2,3,4,6,7,8,9,10,11,0,1,2,3,4,5,7,8,9,10,11,1,2,3,4,5,6,7,10,2,4,5,6,7,10,11,0,1,3,4,5,6,7,8,9,10,11,0,1,2,3,0,1,2,3,4,6,7,8,9,10,0,1,2,3,5,6,7,8,10,11,2,3,4,5,6,7,8,0,1,5,6,7,8,9,11,0,1,3,4,5,6,7,8,9,10,11,0,2,6,7,8,9,10,11,1,5,0,1,2,3,5,6,7,8,9,10,11,0,1,2,3,4,5,6,7,10,11,0,1,2,3,4,5,6,9,10,11,0,2,3,4,5,6,7,9,10,11,2,3,4,5,6,7,9,10,11,0,1,2,3,4,5,6,7,9,10,11,0,4,5,6,7,8,10,11,1,2,3,5,6,8,9,10,11,1,2,3,4,5,6,7,8,9,10,11,1,2,3,4,5,7,11],"categories_nodes":[0,3,4,5,6,7,9,10,12,13,14,20,23,24,25,28,31,32,33,35,36,37,38,39,40,42,43,44,46,47,48,51,52,53,54],"categories_segments":[0,11,19,25,32,38,48,55,61,71,80,82,89,100,111,119,126,137,141,151,161,168,176,187,195,197,208,218,228,238,247,258,266,275,286],"categories_sizes":[11,8,6,7,6,10,7,6,10,9,2,7,11,11,8,7,11,4,10,10,7,8,11,8,2,11,10,10,10,9,11,8,9,11,7],"default_left":[1,0,0,1,1,1,1,1,0,1,1,0,1,1,1,0,1,0,0,0,1,0,0,1,1,1,0,0,1,0,0,1,1,1,0,1,1,1,1,1,1,0,1,1,1,0,1,1,1,0,0,1,1,1,1,0,0,0,0,0,0,0,0,0,0,0,0,0,0,0,0,0,0,0,0,0,0,0,0,0,0,0,0,0,0,0,0,0,0,0,0,0,0,0,0,0,0,0,0,0,0,0,0,0,0,0,0,0,0,0,0],"id":7,"left_children":[1,3,5,7,9,11,13,15,17,19,21,-1,23,25,27,29,31,33,35,37,39,41,43,45,47,49,51,53,55,57,59,61,63,65,67,69,71,73,75,77,79,81,83,85,87,-1,89,91,93,95,97,99,101,103,105,107,109,-1,-1,-1,-1,-1,-1,-1,-1,-1,-1,-1,-1,-1,-1,-1,-1,-1,-1,-1,-1,-1,-1,-1,-1,-1,-1,-1,-1,-1,-1,-1,-1,-1,-1,-1,-1,-1,-1,-1,-1,-1,-1,-1,-1,-1,-1,-1,-1,-1,-1,-1,-1,-1,-1],"loss_changes":[1.3990208E3,6.827966E1,1.1141012E3,8.2464905E0,4.099707E1,5.6180298E1,8.6277374E1,6.2011337E0,3.594307E0,4.217279E1,2.959549E1,0E0,3.5511E1,8.3531685E1,2.9418701E1,1.1181908E0,1.3520508E0,3.3414268E0,7.208412E0,1.7632263E1,2.0052307E1,1.0803925E1,9.615952E0,2.008194E0,1.3814697E1,1.4582411E2,5.810315E1,2.3827438E1,1.866655E1,1.3917313E0,1.0085281E0,1.586545E0,1.2017174E0,4.590431E0,6.24156E-1,6.1807404E0,6.020294E0,2.5675964E1,7.5458603E0,9.082001E0,1.8405199E0,7.2945557E0,2.3589344E1,6.9583054E0,7.2205048E0,0E0,8.8367844E-1,7.693863E-2,6.910212E-1,2.2417319E2,1.7276186E1,1.396315E2,4.3224625E1,2.633641E1,1.5907318E1,7.927472E1,1.2671631E1,0E0,0E0,0E0,0E0,0E0,0E0,0E0,0E0,0E0,0E0,0E0,0E0,0E0,0E0,0E0,0E0,0E0,0E0,0E0,0E0,0E0,0E0,0E0,0E0,0E0,0E0,0E0,0E0,0E0,0E0,0E0,0E0,0E0,0E0,0E0,0E0,0E0,0E0,0E0,0E0,0E0,0E0,0E0,0E0,0E0,0E0,0E0,0E0,0E0,0E0,0E0,0E0,0E0,0E0],"parents":[2147483647,0,0,1,1,2,2,3,3,4,4,5,5,6,6,7,7,8,8,9,9,10,10,12,12,13,13,14,14,15,15,16,16,17,17,18,18,19,19,20,20,21,21,22,22,23,23,24,24,25,25,26,26,27,27,28,28,29,29,30,30,31,31,32,32,33,33,34,34,35,35,36,36,37,37,38,38,39,39,40,40,41,41,42,42,43,43,44,44,46,46,47,47,48,48,49,49,50,50,51,51,52,52,53,53,54,54,55,55,56,56],"right_children":[2,4,6,8,10,12,14,16,18,20,22,-1,24,26,28,30,32,34,36,38,40,42,44,46,48,50,52,54,56,58,60,62,64,66,68,70,72,74,76,78,80,82,84,86,88,-1,90,92,94,96,98,100,102,104,106,108,110,-1,-1,-1,-1,-1,-1,-1,-1,-1,-1,-1,-1,-1,-1,-1,-1,-1,-1,-1,-1,-1,-1,-1,-1,-1,-1,-1,-1,-1,-1,-1,-1,-1,-1,-1,-1,-1,-1,-1,-1,-1,-1,-1,-1,-1,-1,-1,-1,-1,-1,-1,-1,-1,-1],"split_conditions":[1E-45,1.49E0,3.9E-1,1E-45,1E-45,1E-45,1E-45,1E-45,8.2E-1,1E-45,1E-45,1.8116058E-1,1E-45,1E-45,1E-45,4.18E2,5.854193E-1,6.3E-1,1.04E0,4.2E0,1E-45,2.61E0,2.09E0,1E-45,1E-45,1E-45,2.07E0,5.2736413E-1,1E-45,3.73E2,3.7366703E-1,1E-45,1E-45,1E-45,1.99E2,1E-45,1E-45,1E-45,1E-45,1E-45,1E-45,2.44E0,1E-45,1E-45,1E-45,1.7998461E-1,1E-45,1E-45,1E-45,1.23E0,4.52E0,1E-45,1E-45,1E-45,1E-45,1E0,4.7E-1,2.8494988E-2,5.1530916E-2,2.232268E-2,-2.011035E-2,6.953161E-2,2.2759704E-2,2.2025492E-2,1.4301329E-2,3.8833704E-2,1.1233981E-2,4.066381E-3,8.293796E-3,2.9304469E-2,1.489797E-2,1.5047907E-2,7.3830932E-3,4.6131786E-2,2.9196996E-2,3.3726975E-2,2.0477138E-2,2.7537897E-2,1.86713E-2,8.393561E-3,-2.6980177E-2,2.720946E-2,4.46105E-2,3.7255574E-2,1.015974E-2,2.809909E-2,1.4950955E-2,1.5672822E-2,7.916168E-3,1.6340275E-1,1.03381E-1,1.3237578E-1,8.7592594E-2,4.372417E-2,1.34330345E-2,-5.5498197E-3,2.0552535E-2,8.816422E-5,-9.311977E-3,1.2489865E-2,-1.2508313E-3,7.0387276E-4,-4.951799E-3,1.2279089E-2,-6.2323955E-4,-1.8829819E-3,-3.9153746E-3,2.741656E-2,-5.08392E-3,1.4003058E-2,-8.312158E-3],"split_indices":[1,6,6,2,3,2,1,3,6,2,2,0,3,2,2,7,12,6,6,6,2,6,6,2,2,3,6,12,3,7,8,3,4,3,7,2,3,3,3,3,3,6,2,3,3,0,1,1,1,6,6,3,3,2,3,6,6,0,0,0,0,0,0,0,0,0,0,0,0,0,0,0,0,0,0,0,0,0,0,0,0,0,0,0,0,0,0,0,0,0,0,0,0,0,0,0,0,0,0,0,0,0,0,0,0,0,0,0,0,0,0],"split_type":[1,0,0,1,1,1,1,1,0,1,1,0,1,1,1,0,0,0,0,0,1,0,0,1,1,1,0,0,1,0,0,1,1,1,0,1,1,1,1,1,1,0,1,1,1,0,1,1,1,0,0,1,1,1,1,0,0,0,0,0,0,0,0,0,0,0,0,0,0,0,0,0,0,0,0,0,0,0,0,0,0,0,0,0,0,0,0,0,0,0,0,0,0,0,0,0,0,0,0,0,0,0,0,0,0,0,0,0,0,0,0],"sum_hessian":[4.08305E5,3.2729E4,3.75576E5,1.0891E4,2.1838E4,4.38E2,3.75138E5,2.411E3,8.48E3,1.1158E4,1.068E4,3.06E2,1.32E2,1.73403E5,2.01735E5,4.56E2,1.955E3,3.038E3,5.442E3,5.428E3,5.73E3,4.206E3,6.474E3,6.1E1,7.1E1,4.3705E4,1.29698E5,1.68258E5,3.3477E4,4.34E2,2.2E1,1.4E2,1.815E3,1.562E3,1.476E3,1.331E3,4.111E3,3.599E3,1.829E3,4.803E3,9.27E2,2.686E3,1.52E3,1.628E3,4.846E3,3.2E1,2.9E1,2.4E1,4.7E1,1.4635E4,2.907E4,5.9206E4,7.0492E4,9.623E3,1.58635E5,1.3929E4,1.9548E4,4.05E2,2.9E1,1.4E1,8E0,7E0,1.33E2,2.35E2,1.58E3,6.2E1,1.5E3,9.03E2,5.73E2,4.54E2,8.77E2,2.129E3,1.982E3,1.802E3,1.797E3,7.04E2,1.125E3,2.833E3,1.97E3,9.13E2,1.4E1,2.416E3,2.7E2,4.61E2,1.059E3,7.51E2,8.77E2,2.637E3,2.209E3,9E0,2E1,1.1E1,1.3E1,9E0,3.8E1,4.994E3,9.641E3,2.6963E4,2.107E3,8.662E3,5.0544E4,1.8225E4,5.2267E4,1.995E3,7.628E3,6.5833E4,9.2802E4,7.95E2,1.3134E4,2.57E2,1.9291E4],"tree_param":{"num_deleted":"0","num_feature":"14","num_nodes":"111","size_leaf_vector":"1"}},{"base_weights":[2.9003433E-5,1.7850453E-1,-1.5524409E-2,1.20286204E-1,2.0753221E-1,1.4194437E0,-1.7203614E-2,1.6681583E-1,1.07038975E-1,2.3303862E-1,1.4693426E-1,1.6310352E-1,9.203609E-1,-1.6136983E-2,-2.1236984E-1,2.6148993E-1,1.4461088E-1,1.1145501E-1,1.1816204E-2,2.677279E-1,1.5210405E-1,2.2577678E-1,1.0885177E-1,1.4217331E0,4.7584096E-1,3.532423E-2,-2.0697482E-2,-1.9429089E-1,-4.7208402E-2,1.3157961E-1,2.793039E-1,1.958079E-1,1.3278204E-1,2.2757909E-1,1.0348032E-1,4.9263775E-2,-5.6460094E-2,1.5199949E-1,2.820813E-1,2.0066959E-1,7.602618E-2,3.7603608E-1,2.1214136E-1,1.4695166E-1,7.392926E-2,1.6253155E-1,1.1504014E0,1.0221287E0,1.814027E-1,3.200069E-1,-1.400835E-2,-3.540508E-3,-3.0928824E-2,-2.1575007E-1,-1.7134894E-1,2.304326E-3,2.7985696E-2,3.689195E-2,2.4017919E-2,3.596087E-2,1.662103E-2,2.0394389E-2,1.2217617E-2,3.2571953E-2,1.768536E-2,1.0814635E-2,-1.4283498E-3,1.2143028E-2,7.776067E-4,-7.5192484E-3,6.087765E-3,1.796505E-2,7.4374354E-3,3.0120153E-2,2.19433E-2,2.3106633E-2,4.7344915E-3,8.042073E-3,-5.2682753E-3,2.8279496E-2,4.953438E-2,2.4083715E-2,1.5934816E-2,2.3865893E-2,1.2109346E-2,8.192127E-3,-2.3919618E-2,1.6026875E-1,9.705513E-2,1.2024134E-1,7.945899E-2,2.7034137E-2,4.337152E-3,5.431358E-2,1.0194665E-2,-3.8417557E-3,2.0931046E-3,1.6732983E-3,-2.050474E-3,-2.3714488E-3,-4.358865E-3,-2.0949742E-2,-2.8009987E-2,-4.007939E-3,-1.759976E-2],"categories":[0,1,2,3,4,5,6,8,9,10,11,4,5,6,7,8,9,10,11,6,7,9,11,1,3,4,5,6,7,8,0,1,2,3,4,5,7,8,10,11,5,6,7,11,0,1,2,3,4,5,7,8,9,10,1,2,3,4,5,6,7,8,9,10,11,5,6,2,3,4,5,6,7,8,9,10,11,1,0,1,2,3,4,5,8,9,10,11,0,1,2,3,4,6,7,8,9,10,11,0,1,2,3,4,5,7,8,9,10,11,0,1,2,3,4,5,6,7,8,10,11,0,1,2,3,4,5,6,0,1,3,4,5,6,7,8,9,10,11,0,1,2,3,0,2,4,2,4,5,6,7,9,11,0,1,2,3,4,5,6,8,10,1,2,3,4,5,6,7,8,9,10,11,0,0,1,2,3,4,5,6,7,9,10,11,2,3,4,5,6,7,9,10,11,0,1,2,3,4,5,6,8,9,10,11,0,2,3,5,7,10,11,5,6,7,11,8,4,8,9],"categories_nodes":[0,3,4,5,7,9,12,13,14,17,18,22,23,24,25,26,31,32,35,39,42,43,44,46,47,48,49,51,52,53,54],"categories_segments":[0,11,19,23,30,40,44,54,65,67,77,78,88,99,110,121,128,139,143,146,153,162,173,174,185,194,205,206,212,216,217],"categories_sizes":[11,8,4,7,10,4,10,11,2,10,1,10,11,11,11,7,11,4,3,7,9,11,1,11,9,11,1,6,4,1,3],"default_left":[1,0,0,1,1,1,0,1,0,1,0,0,1,1,1,0,1,1,1,0,0,0,1,1,1,1,1,0,0,0,0,1,1,0,0,1,0,0,0,1,0,0,1,1,1,0,1,1,1,1,0,1,1,1,1,0,0,0,0,0,0,0,0,0,0,0,0,0,0,0,0,0,0,0,0,0,0,0,0,0,0,0,0,0,0,0,0,0,0,0,0,0,0,0,0,0,0,0,0,0,0,0,0,0,0],"id":8,"left_children":[1,3,5,7,9,11,13,15,17,19,21,-1,23,25,27,29,31,33,35,37,39,41,43,45,47,49,51,53,-1,55,57,59,61,63,65,67,69,71,73,75,77,79,81,83,85,-1,87,89,91,93,95,97,99,101,103,-1,-1,-1,-1,-1,-1,-1,-1,-1,-1,-1,-1,-1,-1,-1,-1,-1,-1,-1,-1,-1,-1,-1,-1,-1,-1,-1,-1,-1,-1,-1,-1,-1,-1,-1,-1,-1,-1,-1,-1,-1,-1,-1,-1,-1,-1,-1,-1,-1,-1],"loss_changes":[1.1334209E3,5.5286743E1,9.050173E2,6.6958466E0,3.3720947E1,4.485797E1,7.80894E1,5.0327682E0,3.5649948E0,4.3105896E1,1.9407715E1,0E0,2.8965195E1,8.756336E1,9.482124E0,1.0208492E0,1.1585579E0,7.4821167E0,9.666881E-1,1.7823914E1,1.7028687E1,4.237152E0,5.798294E0,1.5550003E0,1.1395639E1,4.2656686E2,6.016214E1,9.0236664E-1,0E0,9.108796E-1,1.3173695E0,1.7097893E0,1.1766186E0,2.5310726E0,4.1699677E0,7.295974E-1,2.991117E-1,2.538723E0,1.1394897E1,1.3108566E1,1.0217819E0,1.7955608E0,2.8915253E0,4.9201813E0,5.725295E0,0E0,8.8482285E-1,7.011795E-2,5.7753754E-1,2.1821344E2,2.20792E1,4.4033985E1,1.9607727E1,3.3643723E-1,5.586262E-1,0E0,0E0,0E0,0E0,0E0,0E0,0E0,0E0,0E0,0E0,0E0,0E0,0E0,0E0,0E0,0E0,0E0,0E0,0E0,0E0,0E0,0E0,0E0,0E0,0E0,0E0,0E0,0E0,0E0,0E0,0E0,0E0,0E0,0E0,0E0,0E0,0E0,0E0,0E0,0E0,0E0,0E0,0E0,0E0,0E0,0E0,0E0,0E0,0E0,0E0],"parents":[2147483647,0,0,1,1,2,2,3,3,4,4,5,5,6,6,7,7,8,8,9,9,10,10,12,12,13,13,14,14,15,15,16,16,17,17,18,18,19,19,20,20,21,21,22,22,23,23,24,24,25,25,26,26,27,27,29,29,30,30,31,31,32,32,33,33,34,34,35,35,36,36,37,37,38,38,39,39,40,40,41,41,42,42,43,43,44,44,46,46,47,47,48,48,49,49,50,50,51,51,52,52,53,53,54,54],"right_children":[2,4,6,8,10,12,14,16,18,20,22,-1,24,26,28,30,32,34,36,38,40,42,44,46,48,50,52,54,-1,56,58,60,62,64,66,68,70,72,74,76,78,80,82,84,86,-1,88,90,92,94,96,98,100,102,104,-1,-1,-1,-1,-1,-1,-1,-1,-1,-1,-1,-1,-1,-1,-1,-1,-1,-1,-1,-1,-1,-1,-1,-1,-1,-1,-1,-1,-1,-1,-1,-1,-1,-1,-1,-1,-1,-1,-1,-1,-1,-1,-1,-1,-1,-1,-1,-1,-1,-1],"split_conditions":[1E-45,1.49E0,3.9E-1,1E-45,1E-45,1E-45,6.26E0,1E-45,1.35E0,1E-45,2.07E0,1.6310352E-1,1E-45,1E-45,1E-45,1.21E2,6.599327E-1,1E-45,1E-45,1.97E0,3.03E0,1.54E0,1E-45,1E-45,1E-45,1E-45,1E-45,6.302791E-1,-4.7208402E-2,7.4625117E-1,4.876033E-1,1E-45,1E-45,1.24E0,1.27E0,1E-45,4.07E2,1.73E0,4.02E0,1E-45,3.44E0,3.7828383E-1,1E-45,1E-45,1E-45,1.6253155E-1,1E-45,1E-45,1E-45,1E-45,1.56E0,1E-45,1E-45,1E-45,1E-45,2.304326E-3,2.7985696E-2,3.689195E-2,2.4017919E-2,3.596087E-2,1.662103E-2,2.0394389E-2,1.2217617E-2,3.2571953E-2,1.768536E-2,1.0814635E-2,-1.4283498E-3,1.2143028E-2,7.776067E-4,-7.5192484E-3,6.087765E-3,1.796505E-2,7.4374354E-3,3.0120153E-2,2.19433E-2,2.3106633E-2,4.7344915E-3,8.042073E-3,-5.2682753E-3,2.8279496E-2,4.953438E-2,2.4083715E-2,1.5934816E-2,2.3865893E-2,1.2109346E-2,8.192127E-3,-2.3919618E-2,1.6026875E-1,9.705513E-2,1.2024134E-1,7.945899E-2,2.7034137E-2,4.337152E-3,5.431358E-2,1.0194665E-2,-3.8417557E-3,2.0931046E-3,1.6732983E-3,-2.050474E-3,-2.3714488E-3,-4.358865E-3,-2.0949742E-2,-2.8009987E-2,-4.007939E-3,-1.759976E-2],"split_indices":[1,6,6,2,3,2,6,3,6,2,6,0,3,2,3,7,12,3,3,6,6,6,3,2,2,3,1,12,0,12,12,3,4,6,6,4,7,6,6,3,6,8,3,2,2,0,1,1,2,0,6,2,2,2,3,0,0,0,0,0,0,0,0,0,0,0,0,0,0,0,0,0,0,0,0,0,0,0,0,0,0,0,0,0,0,0,0,0,0,0,0,0,0,0,0,0,0,0,0,0,0,0,0,0,0],"split_type":[1,0,0,1,1,1,0,1,0,1,0,0,1,1,1,0,0,1,1,0,0,0,1,1,1,1,1,0,0,0,0,1,1,0,0,1,0,0,0,1,0,0,1,1,1,0,1,1,1,1,0,1,1,1,1,0,0,0,0,0,0,0,0,0,0,0,0,0,0,0,0,0,0,0,0,0,0,0,0,0,0,0,0,0,0,0,0,0,0,0,0,0,0,0,0,0,0,0,0,0,0,0,0,0,0],"sum_hessian":[4.08305E5,3.2729E4,3.75576E5,1.0891E4,2.1838E4,4.38E2,3.75138E5,2.411E3,8.48E3,1.5367E4,6.471E3,3.06E2,1.32E2,3.731E5,2.038E3,4.56E2,1.955E3,8.104E3,3.76E2,1.0755E4,4.612E3,2.106E3,4.365E3,6.1E1,7.1E1,3.0372E4,3.42728E5,1.907E3,1.31E2,5.6E1,4E2,3.64E2,1.591E3,5.19E2,7.585E3,2.43E2,1.33E2,1.188E3,9.567E3,2.814E3,1.798E3,1.73E2,1.933E3,2.086E3,2.279E3,3.2E1,2.9E1,2.4E1,4.7E1,4.485E3,2.5887E4,1.28032E5,2.14696E5,9.81E2,9.26E2,3.3E1,2.3E1,1.19E2,2.81E2,5.4E1,3.1E2,2.04E2,1.387E3,1.75E2,3.44E2,7.296E3,2.89E2,8.8E1,1.55E2,1.15E2,1.8E1,8.75E2,3.13E2,7.327E3,2.24E3,2.348E3,4.66E2,1.739E3,5.9E1,9.9E1,7.4E1,1.25E3,6.83E2,4.57E2,1.629E3,2.223E3,5.6E1,6E0,2.3E1,1.1E1,1.3E1,2.8E1,1.9E1,2.216E3,2.269E3,1.524E4,1.0647E4,5.8327E4,6.9705E4,1.36763E5,7.7933E4,8.98E2,8.3E1,3.2E1,8.94E2],"tree_param":{"num_deleted":"0","num_feature":"14","num_nodes":"105","size_leaf_vector":"1"}},{"base_weights":[2.9153405E-5,1.6066915E-1,-1.3969965E-2,1.0718982E-1,1.8626238E-1,1.2793536E0,-1.5483418E-2,1.286182E-1,8.148465E-2,2.2086337E-1,1.5026683E-1,1.4387687E0,7.520187E-1,-1.4523135E-2,-1.9119066E-1,7.0953086E-2,1.3980989E-1,4.3084583E-1,7.646929E-2,2.7684718E-1,1.6890557E-1,1.9234593E-1,1.0674825E-1,1.4726649E-1,1.0439386E0,1.2340697E0,1.6391596E-1,5.254408E-3,-2.441992E-2,-1.7489883E-1,-4.252332E-2,8.919558E-2,1.0042467E-2,2.753288E-1,1.3001962E-1,4.652033E-1,2.317441E-1,1.2234359E-1,5.9381712E-2,3.115377E-1,2.0843324E-1,1.8898787E-1,6.221625E-2,2.0634355E-1,6.403252E-2,1.1095202E-1,-3.491801E-1,1.4653142E-1,8.7754E-2,1.4286175E-1,9.279039E-1,3.8263798E-1,1.0363042E-1,8.532106E-2,-1.0093412E-2,-4.1808942E-3,-3.452074E-2,-1.9422494E-1,-1.542374E-1,1.5075375E-2,5.4790503E-3,-2.9395937E-4,3.5118904E-2,3.339762E-2,1.7882118E-2,1.589865E-2,9.367387E-3,1.4798447E-2,4.863522E-2,5.2869557E-3,4.0180705E-2,2.7340744E-2,8.353918E-3,7.6348977E-3,4.2844187E-3,3.8542688E-2,2.3722872E-2,2.3593342E-2,7.1238726E-3,2.3586376E-2,1.5923357E-2,6.727088E-3,-2.5026396E-2,2.3171408E-2,1.3448386E-2,2.9396987E-2,-2.5876786E-3,1.7370818E-2,9.1527775E-3,9.2920745E-3,-3.6996994E-2,1.0921921E-1,7.2080664E-2,4.500732E-2,2.2518817E-2,1.8260432E-2,-2.130732E-3,-5.4850476E-3,2.5707042E-2,4.6853835E-4,-3.4758605E-3,3.131348E-3,-5.9908684E-3,-1.1493433E-3,-4.8382916E-3,-1.88571E-2,-2.5242329E-2,-3.6192902E-3,-1.5841756E-2],"categories":[0,1,2,3,4,5,6,8,9,10,11,5,7,8,10,11,0,6,7,8,9,11,1,3,4,5,7,8,0,1,5,6,7,8,11,2,3,7,8,11,1,3,4,6,7,8,0,1,2,3,4,5,7,8,9,10,1,2,3,5,6,7,10,11,5,6,2,3,4,5,6,7,8,9,11,2,3,4,5,7,9,10,1,2,3,4,5,9,10,6,0,1,2,3,4,5,6,7,9,10,11,0,1,2,3,4,5,6,7,8,9,10,0,1,2,3,4,5,6,7,9,10,11,0,1,2,3,4,5,6,7,10,11,2,3,4,5,7,8,10,11,0,1,2,3,4,5,6,7,8,10,11,0,1,2,3,5,6,7,8,9,10,11,1,4,5,7,8,0,1,2,3,4,5,7,8,10,0,1,5,6,7,8,9,11,0,1,3,5,6,7,8,9,11,0,1,2,6,7,8,9,10,11,1,5,2,3,4,5,6,7,9,10,11,0,1,2,3,4,5,6,8,9,10,11,5,1,5,6,7,11,8,4,8,9],"categories_nodes":[0,3,4,5,9,10,11,12,13,14,18,20,21,22,24,25,26,27,28,31,33,34,38,39,40,41,42,50,51,52,56,57,58],"categories_segments":[0,11,16,22,28,35,40,46,56,64,66,75,82,89,90,101,112,123,133,141,152,163,168,177,185,194,203,205,214,225,226,231,232],"categories_sizes":[11,5,6,6,7,5,6,10,8,2,9,7,7,1,11,11,11,10,8,11,11,5,9,8,9,9,2,9,11,1,5,1,3],"default_left":[1,0,0,1,1,1,0,0,0,1,1,1,1,1,1,0,0,0,1,0,1,1,1,0,1,1,1,1,1,0,0,1,0,1,1,0,0,0,1,1,1,1,1,0,0,0,0,0,0,0,1,1,1,0,0,0,1,1,1,0,0,0,0,0,0,0,0,0,0,0,0,0,0,0,0,0,0,0,0,0,0,0,0,0,0,0,0,0,0,0,0,0,0,0,0,0,0,0,0,0,0,0,0,0,0,0,0,0,0],"id":9,"left_children":[1,3,5,7,9,11,13,15,17,19,21,23,25,27,29,31,33,35,37,39,41,43,45,-1,47,49,51,53,55,57,-1,59,61,63,65,67,69,71,73,75,77,79,81,83,85,87,89,-1,-1,-1,91,93,95,97,99,101,103,105,107,-1,-1,-1,-1,-1,-1,-1,-1,-1,-1,-1,-1,-1,-1,-1,-1,-1,-1,-1,-1,-1,-1,-1,-1,-1,-1,-1,-1,-1,-1,-1,-1,-1,-1,-1,-1,-1,-1,-1,-1,-1,-1,-1,-1,-1,-1,-1,-1,-1,-1],"loss_changes":[9.1820825E2,4.4777893E1,7.3516815E2,5.8260117E0,2.7535522E1,3.582257E1,6.3293922E1,3.7183838E0,8.412533E0,3.2776062E1,1.9851883E1,2.9594116E0,2.9281261E1,7.3028725E1,7.7002945E0,1.0447068E0,6.3817673E0,3.5735512E-1,3.718521E0,1.2822174E1,1.2532959E1,9.893982E0,1.0267738E1,0E0,8.176193E-1,2.069519E0,5.932642E-1,1.5291264E2,5.0835037E1,7.3191833E-1,0E0,1.5251093E0,9.665075E-1,1.7797527E0,4.736496E0,3.1043053E-1,3.4379584E-1,7.533207E0,9.689951E-1,1.9680328E1,6.8875504E0,6.834442E0,1.4841647E0,9.035217E0,1.1253994E1,6.431343E0,4.8474693E-1,0E0,0E0,0E0,6.3331604E-2,4.825473E-3,3.8869682E-1,4.8188666E2,3.806353E1,1.6375844E2,5.2949768E1,2.7552795E-1,4.5168686E-1,0E0,0E0,0E0,0E0,0E0,0E0,0E0,0E0,0E0,0E0,0E0,0E0,0E0,0E0,0E0,0E0,0E0,0E0,0E0,0E0,0E0,0E0,0E0,0E0,0E0,0E0,0E0,0E0,0E0,0E0,0E0,0E0,0E0,0E0,0E0,0E0,0E0,0E0,0E0,0E0,0E0,0E0,0E0,0E0,0E0,0E0,0E0,0E0,0E0,0E0],"parents":[2147483647,0,0,1,1,2,2,3,3,4,4,5,5,6,6,7,7,8,8,9,9,10,10,11,11,12,12,13,13,14,14,15,15,16,16,17,17,18,18,19,19,20,20,21,21,22,22,24,24,25,25,26,26,27,27,28,28,29,29,31,31,32,32,33,33,34,34,35,35,36,36,37,37,38,38,39,39,40,40,41,41,42,42,43,43,44,44,45,45,46,46,50,50,51,51,52,52,53,53,54,54,55,55,56,56,57,57,58,58],"right_children":[2,4,6,8,10,12,14,16,18,20,22,24,26,28,30,32,34,36,38,40,42,44,46,-1,48,50,52,54,56,58,-1,60,62,64,66,68,70,72,74,76,78,80,82,84,86,88,90,-1,-1,-1,92,94,96,98,100,102,104,106,108,-1,-1,-1,-1,-1,-1,-1,-1,-1,-1,-1,-1,-1,-1,-1,-1,-1,-1,-1,-1,-1,-1,-1,-1,-1,-1,-1,-1,-1,-1,-1,-1,-1,-1,-1,-1,-1,-1,-1,-1,-1,-1,-1,-1,-1,-1,-1,-1,-1,-1],"split_conditions":[1E-45,1.47E0,3.9E-1,1E-45,1E-45,1E-45,6.26E0,7.4E-1,4.7E-1,1E-45,1E-45,1E-45,1E-45,1E-45,1E-45,6.2E-1,1.01E0,2.83E2,1E-45,4.2E0,1E-45,1E-45,1E-45,1.4726649E-1,1E-45,1E-45,1E-45,1E-45,1E-45,6.302791E-1,-4.252332E-2,1E-45,3.97E2,1E-45,1E-45,1.1075541E-1,4.1903192E-1,1.23E0,1E-45,1E-45,1E-45,1E-45,1E-45,2.8E0,1.95E0,2.09E0,1.56E0,1.4653142E-1,8.7754E-2,1.4286175E-1,1E-45,1E-45,1E-45,1.27E0,2.58E0,2.07E0,1E-45,1E-45,1E-45,1.5075375E-2,5.4790503E-3,-2.9395937E-4,3.5118904E-2,3.339762E-2,1.7882118E-2,1.589865E-2,9.367387E-3,1.4798447E-2,4.863522E-2,5.2869557E-3,4.0180705E-2,2.7340744E-2,8.353918E-3,7.6348977E-3,4.2844187E-3,3.8542688E-2,2.3722872E-2,2.3593342E-2,7.1238726E-3,2.3586376E-2,1.5923357E-2,6.727088E-3,-2.5026396E-2,2.3171408E-2,1.3448386E-2,2.9396987E-2,-2.5876786E-3,1.7370818E-2,9.1527775E-3,9.2920745E-3,-3.6996994E-2,1.0921921E-1,7.2080664E-2,4.500732E-2,2.2518817E-2,1.8260432E-2,-2.130732E-3,-5.4850476E-3,2.5707042E-2,4.6853835E-4,-3.4758605E-3,3.131348E-3,-5.9908684E-3,-1.1493433E-3,-4.8382916E-3,-1.88571E-2,-2.5242329E-2,-3.6192902E-3,-1.5841756E-2],"split_indices":[1,6,6,2,3,3,6,6,6,2,2,2,2,2,3,6,6,7,3,6,2,3,3,0,1,2,1,3,3,12,0,2,7,2,3,8,8,6,3,3,2,3,3,6,6,6,6,0,0,0,1,2,2,6,6,6,2,2,3,0,0,0,0,0,0,0,0,0,0,0,0,0,0,0,0,0,0,0,0,0,0,0,0,0,0,0,0,0,0,0,0,0,0,0,0,0,0,0,0,0,0,0,0,0,0,0,0,0,0],"split_type":[1,0,0,1,1,1,0,0,0,1,1,1,1,1,1,0,0,0,1,0,1,1,1,0,1,1,1,1,1,0,0,1,0,1,1,0,0,0,1,1,1,1,1,0,0,0,0,0,0,0,1,1,1,0,0,0,1,1,1,0,0,0,0,0,0,0,0,0,0,0,0,0,0,0,0,0,0,0,0,0,0,0,0,0,0,0,0,0,0,0,0,0,0,0,0,0,0,0,0,0,0,0,0,0,0,0,0,0,0],"sum_hessian":[4.08305E5,3.2729E4,3.75576E5,1.0595E4,2.2134E4,4.38E2,3.75138E5,5.776E3,4.819E3,1.1283E4,1.0851E4,3.35E2,1.03E2,3.731E5,2.038E3,9.4E2,4.836E3,6.7E1,4.752E3,5.429E3,5.854E3,5.515E3,5.336E3,3.06E2,2.9E1,5.6E1,4.7E1,1.24434E5,2.48666E5,1.907E3,1.31E2,7.23E2,2.17E2,3.24E2,4.512E3,5.6E1,1.1E1,1.288E3,3.464E3,3.6E3,1.829E3,4.926E3,9.28E2,4.972E3,5.43E2,5.288E3,4.8E1,6E0,2.3E1,3.2E1,2.4E1,9E0,3.8E1,2.0015E4,1.04419E5,8.2787E4,1.65879E5,9.81E2,9.26E2,2.58E2,4.65E2,2.1E2,7E0,2E2,1.24E2,2.509E3,2.003E3,4E0,5.2E1,6E0,5E0,2.62E2,1.026E3,1.708E3,1.756E3,1.803E3,1.797E3,1.523E3,3.06E2,1.91E3,3.016E3,9.14E2,1.4E1,3.673E3,1.299E3,1.52E2,3.91E2,1.248E3,4.04E3,2E0,4.6E1,1.1E1,1.3E1,5E0,4E0,2.3E1,1.5E1,1.1021E4,8.994E3,6.5296E4,3.9123E4,5.0575E4,3.2212E4,6.2334E4,1.03545E5,8.98E2,8.3E1,3.2E1,8.94E2],"tree_param":{"num_deleted":"0","num_feature":"14","num_nodes":"109","size_leaf_vector":"1"}},{"base_weights":[2.9084156E-5,1.4461643E-1,-1.2571112E-2,9.73721E-2,1.6817248E-1,1.1532165E0,-1.3935321E-2,1.4010692E-1,8.577696E-2,1.940007E-1,1.2689121E-1,1.2960275E0,6.807381E-1,-2.223744E-4,-2.572234E-2,2.1821198E-1,1.2049478E-1,1.06003374E-1,6.9913834E-2,2.2607328E-1,1.09264396E-1,1.689834E-1,9.282074E-2,1.3258784E-1,9.473543E-1,1.1163497E0,1.4926717E-1,1.5271094E-2,-2.2315921E-2,-2.1556187E-2,-4.6660475E-2,2.2846651E-1,-9.47736E-3,3.5009435E-1,1.1730106E-1,1.5735176E-1,9.543686E-2,1.6069686E-1,6.661108E-2,2.5798514E-1,1.9849835E-1,1.5415828E-1,6.2346213E-2,1.8706453E-1,-3.64505E-2,2.1755719E-1,8.1155285E-2,1.3397159E-1,7.934424E-1,1.2900849E-1,8.4236544E-1,3.5112676E-1,9.368094E-2,1.2299597E-2,3.1946334E-1,1.6061941E-2,-3.9806347E-2,-1.95596E-2,-7.232808E-2,-2.2214415E-2,-6.407758E-2,3.07148E-2,1.964257E-2,1.4006562E-2,-2.2443084E-2,8.408373E-3,4.2967226E-2,1.3234802E-2,6.8275244E-3,2.864173E-2,1.3656636E-2,2.9224265E-2,9.240169E-3,3.975476E-2,8.3575165E-3,8.445743E-3,4.4441195E-3,2.9589826E-2,1.907463E-2,2.112892E-2,1.0052987E-2,2.8157426E-2,1.0981663E-2,6.427014E-3,-1.8850725E-2,2.3978466E-2,1.6312895E-2,-2.3667645E-2,-1.7727911E-3,3.292158E-2,1.6258268E-2,7.047325E-3,1.5622039E-2,8.555778E-2,4.6444E-2,8.8377245E-2,4.0403564E-2,4.1256707E-2,2.0717306E-2,1.651047E-2,-1.9309744E-3,4.883464E-3,-9.567356E-4,8.8608675E-2,9.905896E-3,4.8048813E-3,-6.6928747E-3,-3.8001686E-3,-1.9875081E-2,1.1949545E-3,-2.3068532E-3,-6.3365134E-3,-1.492007E-2,2.3573026E-2,-3.9499905E-3,1.35243405E-2,-6.6739866E-3],"categories":[0,1,2,3,4,5,6,8,9,10,11,0,6,7,9,11,1,3,4,5,7,8,0,1,2,3,4,5,0,3,4,5,6,7,8,10,11,4,5,7,8,9,5,6,7,11,1,2,3,4,8,11,1,3,4,6,7,8,0,1,2,3,4,5,7,8,9,10,5,7,0,4,5,7,8,9,10,11,0,1,5,6,7,8,10,11,0,2,4,5,6,7,8,9,11,0,1,2,3,4,5,6,7,9,10,11,0,1,2,3,4,5,6,7,8,9,10,0,1,2,3,4,5,6,7,9,10,11,0,1,2,3,5,6,9,10,11,2,4,5,6,7,10,11,5,7,10,11,0,1,2,3,4,6,7,8,9,10,11,2,3,5,7,8,10,11,0,1,2,3,4,5,6,7,8,9,10,5,1,2,3,4,5,6,7,8,9,10,11,0,2,3,4,5,6,7,8,9,10,2,3,4,5,6,7,8,10,2,3,4,5,6,7,10,0,1,2,3,4,5,6,8,9,10,11,5,2,3,4,5,6,7,10,11,0,1,2,3,5,6,7,8,9,10,11],"categories_nodes":[0,4,5,6,7,8,9,10,11,12,14,17,19,20,24,25,26,28,30,34,37,38,41,42,43,45,48,50,51,52,53,54],"categories_segments":[0,11,16,22,28,37,42,46,52,58,68,70,78,86,95,106,117,128,137,144,148,159,166,177,178,189,199,207,214,225,226,234],"categories_sizes":[11,5,6,6,9,5,4,6,6,10,2,8,8,9,11,11,11,9,7,4,11,7,11,1,11,10,8,7,11,1,8,11],"default_left":[1,0,0,1,1,1,1,1,1,1,1,1,1,0,1,0,0,1,0,1,1,0,0,0,1,1,1,0,1,0,1,0,0,0,1,0,0,1,1,0,0,1,1,1,1,1,0,0,1,0,1,1,1,1,1,0,0,1,0,0,0,0,0,0,0,0,0,0,0,0,0,0,0,0,0,0,0,0,0,0,0,0,0,0,0,0,0,0,0,0,0,0,0,0,0,0,0,0,0,0,0,0,0,0,0,0,0,0,0,0,0,0,0,0,0,0,0],"id":10,"left_children":[1,3,5,7,9,11,13,15,17,19,21,23,25,27,29,31,33,35,37,39,41,43,45,-1,47,49,51,53,55,57,59,61,63,65,67,69,71,73,75,77,79,81,83,85,87,89,91,-1,93,-1,95,97,99,101,103,105,107,109,111,113,115,-1,-1,-1,-1,-1,-1,-1,-1,-1,-1,-1,-1,-1,-1,-1,-1,-1,-1,-1,-1,-1,-1,-1,-1,-1,-1,-1,-1,-1,-1,-1,-1,-1,-1,-1,-1,-1,-1,-1,-1,-1,-1,-1,-1,-1,-1,-1,-1,-1,-1,-1,-1,-1,-1,-1,-1],"loss_changes":[7.438655E2,3.640851E1,5.973256E2,5.3851395E0,2.326062E1,2.8739319E1,6.063549E1,3.532093E0,2.742302E0,3.6479614E1,1.2042236E1,2.2410278E0,2.3910915E1,5.9357513E1,1.7596725E1,1.0878677E0,1.3220978E0,2.027771E0,1.4302979E0,8.522278E0,7.7627754E0,1.3973244E1,6.747135E0,0E0,7.4868584E-1,1.6265182E0,5.0569546E-1,9.212854E1,4.7979904E1,1.7055092E1,1.42528305E1,1.0615215E0,7.064755E-1,4.9308562E-1,1.3446236E0,1.6804829E0,1.8396835E0,3.0355186E0,1.8316727E0,1.1448242E1,6.533722E0,1.0619022E1,8.837347E-1,4.3219604E0,1.1391723E0,2.3834114E0,3.399252E0,0E0,9.325981E-2,0E0,9.667206E-2,2.9728413E-3,3.1792673E-1,8.064404E1,1.230501E2,5.9408134E1,1.407663E1,1.7899837E1,4.3767586E0,6.2119007E1,1.0382675E1,0E0,0E0,0E0,0E0,0E0,0E0,0E0,0E0,0E0,0E0,0E0,0E0,0E0,0E0,0E0,0E0,0E0,0E0,0E0,0E0,0E0,0E0,0E0,0E0,0E0,0E0,0E0,0E0,0E0,0E0,0E0,0E0,0E0,0E0,0E0,0E0,0E0,0E0,0E0,0E0,0E0,0E0,0E0,0E0,0E0,0E0,0E0,0E0,0E0,0E0,0E0,0E0,0E0,0E0,0E0,0E0],"parents":[2147483647,0,0,1,1,2,2,3,3,4,4,5,5,6,6,7,7,8,8,9,9,10,10,11,11,12,12,13,13,14,14,15,15,16,16,17,17,18,18,19,19,20,20,21,21,22,22,24,24,25,25,26,26,27,27,28,28,29,29,30,30,31,31,32,32,33,33,34,34,35,35,36,36,37,37,38,38,39,39,40,40,41,41,42,42,43,43,44,44,45,45,46,46,48,48,50,50,51,51,52,52,53,53,54,54,55,55,56,56,57,57,58,58,59,59,60,60],"right_children":[2,4,6,8,10,12,14,16,18,20,22,24,26,28,30,32,34,36,38,40,42,44,46,-1,48,50,52,54,56,58,60,62,64,66,68,70,72,74,76,78,80,82,84,86,88,90,92,-1,94,-1,96,98,100,102,104,106,108,110,112,114,116,-1,-1,-1,-1,-1,-1,-1,-1,-1,-1,-1,-1,-1,-1,-1,-1,-1,-1,-1,-1,-1,-1,-1,-1,-1,-1,-1,-1,-1,-1,-1,-1,-1,-1,-1,-1,-1,-1,-1,-1,-1,-1,-1,-1,-1,-1,-1,-1,-1,-1,-1,-1,-1,-1,-1,-1],"split_conditions":[1E-45,1.49E0,3.9E-1,7.308642E-1,1E-45,1E-45,1E-45,1E-45,1E-45,1E-45,1E-45,1E-45,1E-45,2.46E0,1E-45,4.18E2,5.4E-1,1E-45,4.4E-1,1E-45,1E-45,3.17E0,1.53E0,1.3258784E-1,1E-45,1E-45,1E-45,2.44E0,1E-45,4.57E0,1E-45,4.7746173E-1,3.7366703E-1,4E0,1E-45,1.23E0,6.1E-1,1E-45,1E-45,4.2E0,3.47E0,1E-45,1E-45,1E-45,6.0415626E-1,1E-45,3.28E0,1.3397159E-1,1E-45,1.2900849E-1,1E-45,1E-45,1E-45,1E-45,1E-45,4.33E0,6.26E0,5.67503E-1,6.26E0,1.1E0,4.7E-1,3.07148E-2,1.964257E-2,1.4006562E-2,-2.2443084E-2,8.408373E-3,4.2967226E-2,1.3234802E-2,6.8275244E-3,2.864173E-2,1.3656636E-2,2.9224265E-2,9.240169E-3,3.975476E-2,8.3575165E-3,8.445743E-3,4.4441195E-3,2.9589826E-2,1.907463E-2,2.112892E-2,1.0052987E-2,2.8157426E-2,1.0981663E-2,6.427014E-3,-1.8850725E-2,2.3978466E-2,1.6312895E-2,-2.3667645E-2,-1.7727911E-3,3.292158E-2,1.6258268E-2,7.047325E-3,1.5622039E-2,8.555778E-2,4.6444E-2,8.8377245E-2,4.0403564E-2,4.1256707E-2,2.0717306E-2,1.651047E-2,-1.9309744E-3,4.883464E-3,-9.567356E-4,8.8608675E-2,9.905896E-3,4.8048813E-3,-6.6928747E-3,-3.8001686E-3,-1.9875081E-2,1.1949545E-3,-2.3068532E-3,-6.3365134E-3,-1.492007E-2,2.3573026E-2,-3.9499905E-3,1.35243405E-2,-6.6739866E-3],"split_indices":[1,6,6,12,3,3,1,3,3,2,2,2,2,6,2,7,6,2,6,2,3,6,6,0,1,2,1,6,3,6,3,12,8,11,2,6,6,2,2,6,6,2,3,3,12,2,6,0,1,0,1,2,2,2,2,6,6,12,6,6,6,0,0,0,0,0,0,0,0,0,0,0,0,0,0,0,0,0,0,0,0,0,0,0,0,0,0,0,0,0,0,0,0,0,0,0,0,0,0,0,0,0,0,0,0,0,0,0,0,0,0,0,0,0,0,0,0],"split_type":[1,0,0,0,1,1,1,1,1,1,1,1,1,0,1,0,0,1,0,1,1,0,0,0,1,1,1,0,1,0,1,0,0,0,1,0,0,1,1,0,0,1,1,1,0,1,0,0,1,0,1,1,1,1,1,0,0,0,0,0,0,0,0,0,0,0,0,0,0,0,0,0,0,0,0,0,0,0,0,0,0,0,0,0,0,0,0,0,0,0,0,0,0,0,0,0,0,0,0,0,0,0,0,0,0,0,0,0,0,0,0,0,0,0,0,0,0],"sum_hessian":[4.08305E5,3.2729E4,3.75576E5,1.0891E4,2.1838E4,4.38E2,3.75138E5,2.322E3,8.569E3,1.3431E4,8.407E3,3.35E2,1.03E2,1.73403E5,2.01735E5,4.64E2,1.858E3,3.764E3,4.805E3,9.742E3,3.689E3,3.759E3,4.648E3,3.06E2,2.9E1,5.6E1,4.7E1,1.01926E5,7.1477E4,1.68258E5,3.3477E4,4.44E2,2E1,2.4E1,1.834E3,6.4E2,3.124E3,1.67E2,4.638E3,4.512E3,5.23E3,1.884E3,1.805E3,3.455E3,3.04E2,3.96E2,4.252E3,6E0,2.3E1,3.2E1,2.4E1,9E0,3.8E1,1.00941E5,9.85E2,2.2377E4,4.91E4,1.61893E5,6.365E3,1.3929E4,1.9548E4,1.26E2,3.18E2,1.2E1,8E0,6E0,1.8E1,1.402E3,4.32E2,8.7E1,5.53E2,4.6E1,3.078E3,4E1,1.27E2,2.568E3,2.07E3,2.883E3,1.629E3,4.625E3,6.05E2,4.85E2,1.399E3,1.792E3,1.3E1,1.076E3,2.379E3,2.5E1,2.79E2,1.29E2,2.67E2,3.724E3,5.28E2,1.8E1,5E0,2.1E1,3E0,5E0,4E0,2.3E1,1.5E1,3.7794E4,6.3147E4,2.75E2,7.1E2,1.6152E4,6.225E3,4.855E4,5.5E2,1.6222E4,1.45671E5,5.702E3,6.63E2,8.74E2,1.3055E4,2.57E2,1.9291E4],"tree_param":{"num_deleted":"0","num_feature":"14","num_nodes":"117","size_leaf_vector":"1"}},{"base_weights":[2.9264973E-5,1.301685E-1,-1.13118375E-2,8.7658316E-2,1.513641E-1,1.0395643E0,-1.2541576E-2,1.24011904E-1,7.6473825E-2,1.8555321E-1,1.256237E-1,1.1676109E0,6.1587906E-1,2.4342604E-2,-1.6355664E-2,1.9303988E-1,1.07545346E-1,5.193883E-2,8.945235E-2,2.320367E-1,1.3670245E-1,1.5689667E-1,9.5748514E-2,1.1937223E-1,8.614847E-1,1.0092374E0,1.359353E-1,4.192799E-2,-5.662615E-4,-5.24583E-3,-2.7490394E-2,2.4803989E-1,1.4499065E-1,3.271021E-1,1.0404688E-1,1.1181893E-1,4.2002328E-2,1.4057331E-1,7.9210706E-2,2.586433E-1,1.5270716E-1,1.6139834E-1,4.859166E-2,2.1059051E-1,1.3203058E-1,1.3137877E-1,6.378737E-2,1.1413918E-1,6.8717256E-2,1.1649857E-1,7.6328015E-1,2.0515342E-1,-2.3537804E-3,7.41089E-2,9.852141E-3,7.4439935E-2,-1.9493673E-2,3.2877747E-2,-1.8315827E-2,-1.275634E-2,-4.8488297E-2,3.8348615E-2,1.8560493E-2,3.0599013E-2,1.0038798E-2,7.6876506E-3,3.8188968E-2,3.8433762E-3,1.0995607E-2,3.3508923E-2,7.4817534E-3,4.7634295E-3,-1.0612811E-2,2.0844983E-2,6.790363E-3,1.0118219E-2,4.8810043E-3,5.1985025E-2,2.453701E-2,8.085567E-3,2.3694845E-2,1.8891329E-2,1.2130874E-2,1.0428533E-2,2.610955E-5,2.3700805E-2,4.7772922E-4,1.5422763E-2,4.284307E-3,2.0845318E-2,9.783912E-3,6.151516E-3,7.50599E-2,9.110619E-2,5.820901E-2,4.6849772E-3,2.9779313E-2,-6.086392E-3,5.641789E-3,8.714924E-3,-1.4752397E-2,1.8773505E-2,5.436318E-4,1.975699E-2,3.8022806E-3,3.0008696E-3,-2.7031966E-3,1.1191515E-2,-3.2969804E-3,-1.5134944E-3,-1.0637852E-2,-3.1302078E-4,-4.940124E-3,1.2422651E-2,-4.931045E-3],"categories":[0,1,2,3,4,5,6,8,9,10,11,1,3,5,6,7,8,11,1,3,4,5,7,8,0,1,2,3,4,5,6,9,10,11,0,3,4,5,6,7,8,10,11,0,5,6,7,9,11,2,5,6,7,8,9,11,1,3,4,6,7,8,0,1,2,3,4,5,7,8,9,10,2,3,7,8,10,2,3,4,5,7,11,0,1,2,4,5,6,7,8,9,10,0,2,3,4,5,6,7,9,10,11,0,1,2,3,4,5,6,7,8,9,10,0,2,3,4,5,6,7,10,2,3,4,5,10,11,0,1,2,3,5,6,7,8,9,11,2,3,4,5,7,8,9,10,11,1,5,6,7,11,0,1,3,0,1,2,3,4,6,7,8,9,10,11,4,0,2,3,4,7,8,9,11,4,5,7,8,11,0,1,2,3,5,6,7,8,9,10,11,1,2,3,4,5,6,7,8,10,11,0,1,2,3,4,5,8,9,10,11,0,1,3,4,5,6,7,9,10,11,2,3,4,5,6,7,9,10,11],"categories_nodes":[0,4,5,6,7,9,10,11,12,13,14,21,24,25,26,27,28,29,30,32,35,36,37,38,39,41,42,45,50],"categories_segments":[0,11,18,24,34,43,49,56,62,72,77,83,93,103,114,122,128,138,147,152,155,166,167,175,180,191,201,211,221],"categories_sizes":[11,7,6,10,9,6,7,6,10,5,6,10,10,11,8,6,10,9,5,3,11,1,8,5,11,10,10,10,9],"default_left":[1,0,0,1,1,1,1,1,0,1,1,1,1,1,1,0,0,0,0,0,0,1,0,0,1,1,1,1,1,1,1,0,1,0,0,1,1,1,1,1,0,1,1,0,0,1,0,0,0,0,1,0,0,0,0,0,0,0,0,0,0,0,0,0,0,0,0,0,0,0,0,0,0,0,0,0,0,0,0,0,0,0,0,0,0,0,0,0,0,0,0,0,0,0,0,0,0,0,0,0,0,0,0,0,0,0,0,0,0,0,0,0,0,0,0],"id":11,"left_children":[1,3,5,7,9,11,13,15,17,19,21,23,25,27,29,31,33,35,37,39,41,43,45,-1,47,49,51,53,55,57,59,61,63,65,67,69,71,73,75,77,79,81,83,85,87,89,91,-1,-1,-1,93,95,97,99,101,103,105,107,109,111,113,-1,-1,-1,-1,-1,-1,-1,-1,-1,-1,-1,-1,-1,-1,-1,-1,-1,-1,-1,-1,-1,-1,-1,-1,-1,-1,-1,-1,-1,-1,-1,-1,-1,-1,-1,-1,-1,-1,-1,-1,-1,-1,-1,-1,-1,-1,-1,-1,-1,-1,-1,-1,-1,-1],"loss_changes":[6.026294E2,2.9477417E1,4.853727E2,4.4191666E0,1.9195923E1,2.309729E1,5.277475E1,2.8902092E0,2.6484985E0,2.1263397E1,1.1628052E1,1.6574097E0,1.9496956E1,1.5399914E1,4.2057465E1,1.2642498E0,1.555954E0,1.7118745E0,2.8412323E0,1.010025E1,9.947235E0,8.099289E0,7.2525024E0,0E0,6.794033E-1,1.2943115E0,4.5994407E-1,2.1271465E1,2.0657696E1,8.4798546E1,5.2533127E1,1.856924E0,1.8722501E0,4.0933752E-1,7.863369E-1,3.3620677E0,2.0706968E0,4.464615E0,3.0282116E0,1.2339996E1,7.298752E0,3.9183273E0,2.6997545E0,1.0465248E1,8.234879E0,7.770939E0,5.202055E0,0E0,0E0,0E0,1.390934E-1,4.5533478E-1,6.1892368E-2,2.9744003E1,8.106905E0,1.3139692E1,4.3365965E0,2.261305E2,3.5499043E1,3.519887E1,9.948441E0,0E0,0E0,0E0,0E0,0E0,0E0,0E0,0E0,0E0,0E0,0E0,0E0,0E0,0E0,0E0,0E0,0E0,0E0,0E0,0E0,0E0,0E0,0E0,0E0,0E0,0E0,0E0,0E0,0E0,0E0,0E0,0E0,0E0,0E0,0E0,0E0,0E0,0E0,0E0,0E0,0E0,0E0,0E0,0E0,0E0,0E0,0E0,0E0,0E0,0E0,0E0,0E0,0E0,0E0],"parents":[2147483647,0,0,1,1,2,2,3,3,4,4,5,5,6,6,7,7,8,8,9,9,10,10,11,11,12,12,13,13,14,14,15,15,16,16,17,17,18,18,19,19,20,20,21,21,22,22,24,24,25,25,26,26,27,27,28,28,29,29,30,30,31,31,32,32,33,33,34,34,35,35,36,36,37,37,38,38,39,39,40,40,41,41,42,42,43,43,44,44,45,45,46,46,50,50,51,51,52,52,53,53,54,54,55,55,56,56,57,57,58,58,59,59,60,60],"right_children":[2,4,6,8,10,12,14,16,18,20,22,24,26,28,30,32,34,36,38,40,42,44,46,-1,48,50,52,54,56,58,60,62,64,66,68,70,72,74,76,78,80,82,84,86,88,90,92,-1,-1,-1,94,96,98,100,102,104,106,108,110,112,114,-1,-1,-1,-1,-1,-1,-1,-1,-1,-1,-1,-1,-1,-1,-1,-1,-1,-1,-1,-1,-1,-1,-1,-1,-1,-1,-1,-1,-1,-1,-1,-1,-1,-1,-1,-1,-1,-1,-1,-1,-1,-1,-1,-1,-1,-1,-1,-1,-1,-1,-1,-1,-1,-1],"split_conditions":[1E-45,1.49E0,3.9E-1,7.4625117E-1,1E-45,1E-45,1E-45,1E-45,9.1E-1,1E-45,1E-45,1E-45,1E-45,1E-45,1E-45,3.4339648E-1,5.4E-1,4.7E-1,1.04E0,4.52E0,3.07E0,1E-45,2.82E0,1.1937223E-1,1E-45,1E-45,1E-45,1E-45,1E-45,1E-45,1E-45,4.876033E-1,1E-45,4E0,7.6E-1,1E-45,1E-45,1E-45,1E-45,1E-45,4.74E0,1E-45,1E-45,4.33E0,3.15E0,1E-45,3.55E0,1.1413918E-1,6.8717256E-2,1.1649857E-1,1E-45,1.0372077E0,1.63E2,3.53E0,5.7E-1,2.62E0,1.44E0,1.91E0,3.42E0,4.2E0,4.7E-1,3.8348615E-2,1.8560493E-2,3.0599013E-2,1.0038798E-2,7.6876506E-3,3.8188968E-2,3.8433762E-3,1.0995607E-2,3.3508923E-2,7.4817534E-3,4.7634295E-3,-1.0612811E-2,2.0844983E-2,6.790363E-3,1.0118219E-2,4.8810043E-3,5.1985025E-2,2.453701E-2,8.085567E-3,2.3694845E-2,1.8891329E-2,1.2130874E-2,1.0428533E-2,2.610955E-5,2.3700805E-2,4.7772922E-4,1.5422763E-2,4.284307E-3,2.0845318E-2,9.783912E-3,6.151516E-3,7.50599E-2,9.110619E-2,5.820901E-2,4.6849772E-3,2.9779313E-2,-6.086392E-3,5.641789E-3,8.714924E-3,-1.4752397E-2,1.8773505E-2,5.436318E-4,1.975699E-2,3.8022806E-3,3.0008696E-3,-2.7031966E-3,1.1191515E-2,-3.2969804E-3,-1.5134944E-3,-1.0637852E-2,-3.1302078E-4,-4.940124E-3,1.2422651E-2,-4.931045E-3],"split_indices":[1,6,6,12,2,3,1,3,6,3,3,2,2,2,3,8,6,6,6,6,6,2,6,0,1,2,1,3,3,2,2,12,5,11,6,2,2,3,2,3,6,2,3,6,6,3,6,0,0,0,1,12,7,6,6,6,6,6,6,6,6,0,0,0,0,0,0,0,0,0,0,0,0,0,0,0,0,0,0,0,0,0,0,0,0,0,0,0,0,0,0,0,0,0,0,0,0,0,0,0,0,0,0,0,0,0,0,0,0,0,0,0,0,0,0],"split_type":[1,0,0,0,1,1,1,1,0,1,1,1,1,1,1,0,0,0,0,0,0,1,0,0,1,1,1,1,1,1,1,0,1,0,0,1,1,1,1,1,0,1,1,0,0,1,0,0,0,0,1,0,0,0,0,0,0,0,0,0,0,0,0,0,0,0,0,0,0,0,0,0,0,0,0,0,0,0,0,0,0,0,0,0,0,0,0,0,0,0,0,0,0,0,0,0,0,0,0,0,0,0,0,0,0,0,0,0,0,0,0,0,0,0,0],"sum_hessian":[4.08305E5,3.2729E4,3.75576E5,1.0891E4,2.1838E4,4.38E2,3.75138E5,2.56E3,8.331E3,9.377E3,1.2461E4,3.35E2,1.03E2,3.5156E4,3.39982E5,4.91E2,2.069E3,2.884E3,5.447E3,4.803E3,4.574E3,6.086E3,6.375E3,3.06E2,2.9E1,5.6E1,4.7E1,2.0607E4,1.4549E4,1.70182E5,1.698E5,2.27E2,2.64E2,3.1E1,2.038E3,4.09E2,2.475E3,9.07E2,4.54E3,3.595E3,1.208E3,3.572E3,1.002E3,1.924E3,4.162E3,3.013E3,3.362E3,9E0,2E1,3.2E1,2.4E1,3.1E1,1.6E1,1.0286E4,1.0321E4,2.931E3,1.1618E4,4.3448E4,1.26734E5,9.9784E4,7.0016E4,7E1,1.57E2,5.6E1,2.08E2,6E0,2.5E1,1.69E2,1.869E3,5.7E1,3.52E2,2.385E3,9E1,4.68E2,4.39E2,2.634E3,1.906E3,1.72E2,3.423E3,6.53E2,5.55E2,2.116E3,1.456E3,4.65E2,5.37E2,1.705E3,2.19E2,3.332E3,8.3E2,9.12E2,2.101E3,3.352E3,1E1,1.1E1,1.3E1,1.2E1,1.9E1,8E0,8E0,9.715E3,5.71E2,2.49E2,1.0072E4,6.68E2,2.263E3,1.535E3,1.0083E4,1.9746E4,2.3702E4,1.22317E5,4.417E3,7.9026E4,2.0758E4,3.31E2,6.9685E4],"tree_param":{"num_deleted":"0","num_feature":"14","num_nodes":"115","size_leaf_vector":"1"}},{"base_weights":[2.9236311E-5,1.1716818E-1,-1.0178944E-2,7.891413E-2,1.3624167E-1,9.369793E-1,-1.1287313E-2,1.5758015E-1,7.468328E-2,1.650888E-1,1.1084904E-1,1.0517495E0,5.571742E-1,6.720833E-3,-1.8321944E-2,1.9979122E-1,8.3972886E-2,8.8456504E-2,5.560521E-2,2.1438013E-1,1.1829353E-1,1.6287369E-1,9.004963E-2,1.074739E-1,7.814315E-1,9.129771E-1,1.23050526E-1,3.274198E-2,-6.455732E-3,-5.064816E-3,-2.5009997E-2,8.502396E-2,2.3433156E-1,5.6380663E-2,2.3051918E-1,4.9651463E-2,9.549872E-2,3.225204E-1,5.1405042E-2,2.501022E-1,1.5281326E-1,1.3664809E-1,5.0477695E-2,2.0352454E-1,1.1013422E-1,1.3460048E-1,6.8635836E-2,1.12704955E-1,6.480666E-1,1.0520174E-1,6.9292474E-1,3.0042902E-1,7.441372E-2,-3.1113368E-2,9.52154E-2,2.7506502E-2,-1.7842691E-2,-4.369978E-2,8.281914E-3,1.5177936E-2,-3.0284122E-2,2.3064565E-2,-1.755205E-4,4.3583527E-2,1.9209377E-2,1.2464224E-2,-5.617436E-3,5.7072867E-2,9.333566E-3,6.5531405E-3,-3.340541E-4,1.9612608E-2,8.579321E-3,3.5286665E-2,1.54028E-2,1.0047092E-2,3.887843E-3,2.3243928E-2,4.700804E-2,2.2099024E-2,1.0999124E-2,7.887661E-2,1.2340116E-2,9.992756E-3,2.163049E-3,3.600941E-2,1.5167202E-2,2.4037614E-2,4.893433E-3,3.715998E-2,1.2165935E-2,8.654895E-3,-6.649559E-4,7.0225075E-2,3.6847234E-2,8.275478E-2,5.2803893E-2,3.5337042E-2,1.7681357E-2,1.3488668E-2,-2.0946593E-3,-1.9902703E-3,-8.536262E-3,3.3148054E-2,3.637731E-3,8.55073E-3,-2.1046934E-4,-2.8597882E-3,3.742787E-4,1.451448E-1,-4.5954282E-3,9.423183E-3,-8.984363E-4,1.9390719E-1,1.2305999E-3,-2.1702093E-3,-5.5111297E-3],"categories":[0,1,2,3,4,5,6,8,9,10,11,0,5,6,7,8,9,11,1,3,4,5,7,8,0,1,2,3,4,5,6,10,0,4,5,7,10,11,5,7,10,11,0,1,5,6,7,8,11,1,2,3,5,7,8,10,11,1,3,4,6,7,8,0,1,2,3,4,5,7,8,9,10,1,2,3,5,7,8,10,11,1,2,3,5,6,7,10,11,0,1,2,3,4,5,6,7,9,10,11,0,1,2,3,4,5,6,7,8,9,10,0,1,2,3,4,5,6,7,9,10,11,0,1,2,3,5,7,8,9,11,0,3,4,5,7,9,10,11,0,3,0,1,2,5,6,7,8,9,10,11,0,2,3,4,5,6,7,8,9,11,0,1,3,4,5,6,7,8,9,10,11,0,1,2,3,5,6,7,8,9,10,11,1,2,3,4,5,7,8,9,10,11,0,1,2,3,5,6,7,8,9,10,11,0,1,2,3,4,6,7,8,9,10,11,0,1,2,3,4,5,6,9,10,2,3,4,5,6,7,8,10,2,3,4,5,6,7,9,10,11,0,1,2,3,4,5,6,8,9,10,11,5,6,9,0,2,3,4,5,6,7,9,10,0,3,4,5,6,7,8,9,10,11,1,2,3,5,6,7,8,10,11,0,1,4,5,6,7,8,9,10,11,4,5,7,11],"categories_nodes":[0,4,5,6,7,8,9,10,11,12,13,14,24,25,26,28,32,33,34,38,40,41,43,44,45,46,48,50,51,52,53,55,57,58,59,60],"categories_segments":[0,11,18,24,32,38,42,49,57,63,73,81,89,100,111,122,131,139,141,151,161,172,183,193,204,215,224,232,241,252,253,255,264,274,283,293],"categories_sizes":[11,7,6,8,6,4,7,8,6,10,8,8,11,11,11,9,8,2,10,10,11,11,10,11,11,9,8,9,11,1,2,9,10,9,10,4],"default_left":[1,0,0,1,1,1,1,1,1,1,1,1,1,1,1,0,0,0,0,0,0,0,0,0,1,1,1,0,1,0,0,1,1,1,1,0,0,0,1,0,1,1,0,1,1,1,1,0,1,0,1,1,1,1,0,1,1,1,1,1,1,0,0,0,0,0,0,0,0,0,0,0,0,0,0,0,0,0,0,0,0,0,0,0,0,0,0,0,0,0,0,0,0,0,0,0,0,0,0,0,0,0,0,0,0,0,0,0,0,0,0,0,0,0,0,0,0],"id":12,"left_children":[1,3,5,7,9,11,13,15,17,19,21,23,25,27,29,31,33,35,37,39,41,43,45,-1,47,49,51,53,55,57,59,61,63,65,67,69,71,73,75,77,79,81,83,85,87,89,91,-1,93,-1,95,97,99,101,103,105,107,109,111,113,115,-1,-1,-1,-1,-1,-1,-1,-1,-1,-1,-1,-1,-1,-1,-1,-1,-1,-1,-1,-1,-1,-1,-1,-1,-1,-1,-1,-1,-1,-1,-1,-1,-1,-1,-1,-1,-1,-1,-1,-1,-1,-1,-1,-1,-1,-1,-1,-1,-1,-1,-1,-1,-1,-1,-1,-1],"loss_changes":[4.8824353E2,2.38703E1,3.942915E2,3.6133575E0,1.5978851E1,1.855011E1,4.752298E1,1.7076311E0,2.711563E0,2.3552704E1,1.2556961E1,1.24823E0,1.5951752E1,3.613144E1,2.3918076E1,1.3754387E0,8.1188476E-1,1.6354446E0,4.845583E0,1.0907669E1,6.522949E0,7.088913E0,7.9108963E0,0E0,6.5239525E-1,1.0150108E0,3.9174592E-1,1.4131859E2,2.7054333E1,4.664507E1,3.8005028E1,1.0492699E0,2.2142677E0,1.3361924E0,1.4402069E0,7.777736E-1,4.9435234E0,2.882266E-1,2.6211758E0,1.2122162E1,5.3183365E0,3.5562653E1,1.5940816E0,1.5143265E1,1.1514004E1,8.217388E0,7.56485E0,0E0,1.0482979E-1,0E0,1.1795902E-1,2.963066E-3,2.2772752E-1,1.0652834E1,2.489062E2,3.0169308E1,1.2162989E1,7.8357315E1,9.977697E1,1.14913506E2,3.3770645E1,0E0,0E0,0E0,0E0,0E0,0E0,0E0,0E0,0E0,0E0,0E0,0E0,0E0,0E0,0E0,0E0,0E0,0E0,0E0,0E0,0E0,0E0,0E0,0E0,0E0,0E0,0E0,0E0,0E0,0E0,0E0,0E0,0E0,0E0,0E0,0E0,0E0,0E0,0E0,0E0,0E0,0E0,0E0,0E0,0E0,0E0,0E0,0E0,0E0,0E0,0E0,0E0,0E0,0E0,0E0,0E0],"parents":[2147483647,0,0,1,1,2,2,3,3,4,4,5,5,6,6,7,7,8,8,9,9,10,10,11,11,12,12,13,13,14,14,15,15,16,16,17,17,18,18,19,19,20,20,21,21,22,22,24,24,25,25,26,26,27,27,28,28,29,29,30,30,31,31,32,32,33,33,34,34,35,35,36,36,37,37,38,38,39,39,40,40,41,41,42,42,43,43,44,44,45,45,46,46,48,48,50,50,51,51,52,52,53,53,54,54,55,55,56,56,57,57,58,58,59,59,60,60],"right_children":[2,4,6,8,10,12,14,16,18,20,22,24,26,28,30,32,34,36,38,40,42,44,46,-1,48,50,52,54,56,58,60,62,64,66,68,70,72,74,76,78,80,82,84,86,88,90,92,-1,94,-1,96,98,100,102,104,106,108,110,112,114,116,-1,-1,-1,-1,-1,-1,-1,-1,-1,-1,-1,-1,-1,-1,-1,-1,-1,-1,-1,-1,-1,-1,-1,-1,-1,-1,-1,-1,-1,-1,-1,-1,-1,-1,-1,-1,-1,-1,-1,-1,-1,-1,-1,-1,-1,-1,-1,-1,-1,-1,-1,-1,-1,-1,-1,-1],"split_conditions":[1E-45,1.49E0,3.9E-1,5.6337404E-1,1E-45,1E-45,1E-45,1E-45,1E-45,1E-45,1E-45,1E-45,1E-45,1E-45,1E-45,1.32E2,4.428335E-1,7.4E-1,4.7E-1,4.2E0,3.14E0,2.61E0,2.09E0,1.074739E-1,1E-45,1E-45,1E-45,1.46E0,1E-45,1.23E0,1.03E0,4.076637E-1,1E-45,1E-45,1E-45,6.2E-1,1.02E0,2.83E2,1E-45,3.3E0,1E-45,1E-45,1.54E2,1E-45,1E-45,1E-45,1E-45,1.12704955E-1,1E-45,1.0520174E-1,1E-45,1E-45,1E-45,1E-45,1.95E0,1E-45,9.197531E-1,1E-45,1E-45,1E-45,1E-45,2.3064565E-2,-1.755205E-4,4.3583527E-2,1.9209377E-2,1.2464224E-2,-5.617436E-3,5.7072867E-2,9.333566E-3,6.5531405E-3,-3.340541E-4,1.9612608E-2,8.579321E-3,3.5286665E-2,1.54028E-2,1.0047092E-2,3.887843E-3,2.3243928E-2,4.700804E-2,2.2099024E-2,1.0999124E-2,7.887661E-2,1.2340116E-2,9.992756E-3,2.163049E-3,3.600941E-2,1.5167202E-2,2.4037614E-2,4.893433E-3,3.715998E-2,1.2165935E-2,8.654895E-3,-6.649559E-4,7.0225075E-2,3.6847234E-2,8.275478E-2,5.2803893E-2,3.5337042E-2,1.7681357E-2,1.3488668E-2,-2.0946593E-3,-1.9902703E-3,-8.536262E-3,3.3148054E-2,3.637731E-3,8.55073E-3,-2.1046934E-4,-2.8597882E-3,3.742787E-4,1.451448E-1,-4.5954282E-3,9.423183E-3,-8.984363E-4,1.9390719E-1,1.2305999E-3,-2.1702093E-3,-5.5111297E-3],"split_indices":[1,6,6,12,3,3,1,3,2,2,2,2,2,2,3,7,8,6,6,6,6,6,6,0,1,2,1,6,3,6,6,12,3,4,2,6,6,7,3,6,3,3,7,3,2,2,3,0,1,0,1,2,2,3,6,2,12,2,2,3,2,0,0,0,0,0,0,0,0,0,0,0,0,0,0,0,0,0,0,0,0,0,0,0,0,0,0,0,0,0,0,0,0,0,0,0,0,0,0,0,0,0,0,0,0,0,0,0,0,0,0,0,0,0,0,0,0],"split_type":[1,0,0,0,1,1,1,1,1,1,1,1,1,1,1,0,0,0,0,0,0,0,0,0,1,1,1,0,1,0,0,0,1,1,1,0,0,0,1,0,1,1,0,1,1,1,1,0,1,0,1,1,1,1,0,1,0,1,1,1,1,0,0,0,0,0,0,0,0,0,0,0,0,0,0,0,0,0,0,0,0,0,0,0,0,0,0,0,0,0,0,0,0,0,0,0,0,0,0,0,0,0,0,0,0,0,0,0,0,0,0,0,0,0,0,0,0],"sum_hessian":[4.08305E5,3.2729E4,3.75576E5,1.0891E4,2.1838E4,4.38E2,3.75138E5,5.54E2,1.0337E4,1.0221E4,1.1617E4,3.35E2,1.03E2,1.05378E5,2.6976E5,3.51E2,2.03E2,6.001E3,4.336E3,4.976E3,5.245E3,3.316E3,8.301E3,3.06E2,2.9E1,5.6E1,4.7E1,3.5423E4,6.9955E4,9.0457E4,1.79303E5,8.2E1,2.69E2,1.72E2,3.1E1,9.23E2,5.078E3,6.6E1,4.27E3,3.147E3,1.829E3,4.127E3,1.118E3,1.871E3,1.445E3,2.693E3,5.608E3,6E0,2.3E1,3.2E1,2.4E1,9E0,3.8E1,1.7518E4,1.7905E4,1.7565E4,5.239E4,2.3225E4,6.7232E4,2.0801E4,1.58502E5,3E1,5.2E1,4.5E1,2.24E2,1.07E2,6.5E1,8E0,2.3E1,7.1E2,2.13E2,4.45E2,4.633E3,5.5E1,1.1E1,8.67E2,3.403E3,2.915E3,2.32E2,7.04E2,1.125E3,8.1E1,4.046E3,4.11E2,7.07E2,4.64E2,1.407E3,4.61E2,9.84E2,1.38E2,2.555E3,4.53E3,1.078E3,1.8E1,5E0,1.1E1,1.3E1,5E0,4E0,2.3E1,1.5E1,1.4519E4,2.999E3,3.569E3,1.4336E4,5.936E3,1.1629E4,3.4967E4,1.7423E4,3.4E1,2.3191E4,1.1246E4,5.5986E4,3E1,2.0771E4,1.17788E5,4.0714E4],"tree_param":{"num_deleted":"0","num_feature":"14","num_nodes":"117","size_leaf_vector":"1"}},{"base_weights":[3.025091E-5,1.0546975E-1,-9.15837E-3,7.104637E-2,1.2263326E-1,8.4472185E-1,-1.0157585E-2,1.01855196E-1,6.1568156E-2,1.4860018E-1,9.977594E-2,9.475483E-1,5.043911E-1,-9.355376E-3,-1.5694274E-1,1.6046771E-1,8.78749E-2,7.9661384E-2,4.7390856E-2,1.929629E-1,1.0648392E-1,1.4661045E-1,8.105155E-2,9.6761495E-2,7.1061426E-1,8.259031E-1,1.1208739E-1,1.5485434E-2,-1.4249613E-2,-1.4276588E-1,-3.6067378E-2,2.1033911E-1,1.1695395E-1,1.3760701E-1,7.5094536E-2,2.3805827E-1,7.695456E-2,1.2506042E-1,4.457447E-2,2.251143E-1,1.3755004E-1,1.23269685E-1,4.4254098E-2,1.8319939E-1,9.914082E-2,1.1715299E-1,5.855786E-2,1.03044525E-1,5.877213E-1,9.500035E-2,6.2905455E-1,1.7260589E-1,-8.423146E-3,7.093814E-2,-1.1327708E-2,-6.7462265E-3,-2.7459092E-2,-3.5219707E-2,-1.4570053E-1,4.136005E-2,1.7745305E-2,2.6169369E-2,7.6919883E-3,2.3700384E-2,7.6614222E-3,9.4025135E-3,2.1546928E-3,2.8555173E-2,-3.2713555E-3,2.5075221E-2,7.4683414E-3,2.9552465E-2,6.7222267E-3,5.9293783E-3,2.6483892E-3,3.6795348E-2,2.0262443E-2,1.5970822E-2,2.7105033E-3,1.0331158E-2,1.9310834E-2,7.6618823E-3,2.7837623E-3,3.5999153E-2,1.44852E-2,1.740098E-2,9.7150303E-4,3.3494085E-2,1.06958235E-2,7.1692863E-3,-1.837877E-3,6.357218E-2,3.3776622E-2,7.516893E-2,4.790066E-2,6.245803E-3,2.788501E-2,4.2343414E-3,-7.0828456E-3,-4.926611E-3,2.1822222E-2,8.846196E-3,-3.8243607E-3,-3.0359455E-5,-2.1084857E-3,-4.1855997E-4,-3.0808086E-3,1.799052E-2,-8.442969E-3,-1.1873349E-2,-1.5850982E-2],"categories":[0,1,2,3,4,5,6,8,9,10,11,0,5,6,7,8,9,11,1,3,4,5,7,8,0,3,4,5,6,7,8,10,11,4,5,7,8,9,0,1,5,6,7,8,11,1,2,3,5,7,8,10,11,1,3,4,6,7,8,0,1,2,3,4,5,7,8,9,10,0,1,2,3,4,5,6,7,10,11,5,6,0,2,3,4,5,6,7,8,9,10,11,0,2,3,4,5,7,9,10,0,1,2,3,4,5,6,7,9,10,11,0,1,2,3,4,5,6,7,8,9,10,0,2,3,4,5,6,7,10,1,7,10,11,0,1,3,4,4,8,9,0,1,3,1,2,3,5,8,9,10,11,4,7,10,11,0,1,2,3,4,6,7,8,9,10,11,2,3,5,7,8,10,11,0,1,3,5,6,7,8,9,10,11,0,1,3,5,6,7,8,9,11,1,2,3,4,5,6,7,8,9,10,11,0,1,2,3,4,5,7,9,10,11,0,1,2,3,4,6,7,8,9,10,11,0,6,9,2,3,4,5,6,7,8,10,2,3,4,5,6,7,9,10,11,10,8,9,10,11],"categories_nodes":[0,4,5,7,8,9,10,11,12,13,14,17,20,24,25,26,27,28,29,32,33,34,37,38,39,40,43,44,45,46,48,50,52,58],"categories_segments":[0,11,18,24,33,38,45,53,59,69,79,81,92,100,111,122,130,134,138,141,144,152,156,167,174,184,193,204,214,225,228,236,245,246],"categories_sizes":[11,7,6,9,5,7,8,6,10,10,2,11,8,11,11,8,4,4,3,3,8,4,11,7,10,9,11,10,11,3,8,9,1,4],"default_left":[1,0,0,1,1,1,0,1,1,1,1,1,1,1,1,0,0,1,0,0,1,0,0,0,1,1,1,1,1,1,0,0,1,1,1,0,0,1,1,1,1,0,0,1,1,1,1,0,1,0,1,0,1,0,0,0,0,0,1,0,0,0,0,0,0,0,0,0,0,0,0,0,0,0,0,0,0,0,0,0,0,0,0,0,0,0,0,0,0,0,0,0,0,0,0,0,0,0,0,0,0,0,0,0,0,0,0,0,0,0,0],"id":13,"left_children":[1,3,5,7,9,11,13,15,17,19,21,23,25,27,29,31,33,35,37,39,41,43,45,-1,47,49,51,53,55,57,-1,59,61,63,65,67,69,71,73,75,77,79,81,83,85,87,89,-1,91,-1,93,95,97,99,101,103,105,107,109,-1,-1,-1,-1,-1,-1,-1,-1,-1,-1,-1,-1,-1,-1,-1,-1,-1,-1,-1,-1,-1,-1,-1,-1,-1,-1,-1,-1,-1,-1,-1,-1,-1,-1,-1,-1,-1,-1,-1,-1,-1,-1,-1,-1,-1,-1,-1,-1,-1,-1,-1,-1],"loss_changes":[3.9558563E2,1.932904E1,3.2045438E2,3.1743279E0,1.2947357E1,1.4884888E1,4.4172054E1,2.0844345E0,2.1334934E0,1.9078156E1,1.0176498E1,9.099121E-1,1.3024981E1,4.536065E1,5.837681E0,1.0430851E0,1.3053474E0,1.5504856E0,1.0168514E0,8.836075E0,5.474388E0,5.7430115E0,6.7348137E0,0E0,5.73534E-1,7.948494E-1,3.5152352E-1,9.131044E1,3.089333E1,5.970497E-1,0E0,1.4506645E0,1.5154185E0,2.5402117E0,1.6695452E0,7.9379463E-1,1.4018688E0,1.5872061E0,1.1998882E0,1.0038193E1,4.4741592E0,5.7380333E0,5.9081435E-1,1.2639114E1,9.679594E0,7.0380325E0,5.172369E0,0E0,7.322502E-2,0E0,9.9962234E-2,3.5706586E-1,5.6856863E-2,3.5437747E2,1.1119006E2,1.8362995E1,8.800545E0,5.6567657E-1,6.226425E-1,0E0,0E0,0E0,0E0,0E0,0E0,0E0,0E0,0E0,0E0,0E0,0E0,0E0,0E0,0E0,0E0,0E0,0E0,0E0,0E0,0E0,0E0,0E0,0E0,0E0,0E0,0E0,0E0,0E0,0E0,0E0,0E0,0E0,0E0,0E0,0E0,0E0,0E0,0E0,0E0,